image_name,e1,e2,e3,e4,e5,e6,e7,e8,e9,e10,e11,e12,e13,e14,e15,e16,e17,e18,e19,e20,e21,e22,e23,e24,e25,e26,e27,e28,e29,e30,e31,e32,e33,e34,e35,e36,e37,e38,e39,e40,e41,e42,e43,e44,e45,e46,e47,e48,e49,e50,e51,e52,e53,e54,e55,e56,e57,e58,e59,e60,e61,e62,e63,e64,e65,e66,e67,e68,e69,e70,e71,e72,e73,e74,e75,e76,e77,e78,e79,e80,e81,e82,e83,e84,e85,e86,e87,e88,e89,e90,e91,e92,e93,e94,e95,e96,e97,e98,e99,e100,e101,e102,e103,e104,e105,e106,e107,e108,e109,e110,e111,e112,e113,e114,e115,e116,e117,e118,e119,e120,e121,e122,e123,e124,e125,e126,e127,e128
001_ff.jpg,-1.86470985412598,-0.513211250305176,-0.577297210693359,1.46589529514313,1.46974074840546,0.324467301368713,-0.319633811712265,-1.94828426837921,0.174478322267532,1.50518202781677,0.445478558540344,-1.0002349615097,-1.05408596992493,-1.57660949230194,-0.203247487545013,0.324007511138916,1.6810394525528,-0.562480509281158,-1.05414366722107,-2.26597237586975,1.49891340732574,-1.30764007568359,0.338507562875748,-0.539300262928009,0.449026823043823,0.0928025394678116,1.19033336639404,0.890324115753174,0.203479304909706,1.14723646640778,1.18725395202637,0.0670713409781456,0.700853049755096,-2.1657338142395,2.05175685882568,0.903985679149628,-1.41665816307068,0.930343389511108,1.43268966674805,0.101633153855801,0.283949822187424,0.271406620740891,-0.577163219451904,-0.297998309135437,1.10042595863342,0.533008396625519,-0.521264672279358,-0.253989070653915,-0.413610458374023,0.351711720228195,-0.36665290594101,0.939866244792938,1.20670878887177,-0.233291625976563,1.04701137542725,1.64857196807861,0.98157811164856,-2.43846106529236,1.3270959854126,-1.75372087955475,-0.154635310173035,-0.849529385566711,0.226789340376854,-1.27360427379608,-0.508779466152191,0.521441757678986,0.17613697052002,1.43050384521484,-1.24436187744141,0.347682923078537,-1.39408922195435,0.469451814889908,-0.711326241493225,-2.49243903160095,0.455837488174439,1.22661805152893,0.26786670088768,1.1532723903656,-1.93051731586456,-0.287188112735748,-0.627480268478394,1.09565412998199,-0.428238302469254,-0.022042702883482,0.700076878070831,1.02222681045532,-0.687036275863648,0.495891809463501,-1.52697682380676,0.551089882850647,1.15137481689453,1.18036818504334,1.10013353824615,1.3339661359787,0.0545784756541252,-0.029303727671504,0.144213423132896,0.125029861927032,-1.12581181526184,0.331256330013275,-0.63259220123291,0.206136792898178,0.418743163347244,-1.89350557327271,0.527793765068054,-0.383692800998688,-0.923569679260254,2.40337443351746,0.998381614685059,1.0217832326889,-0.767383277416229,0.609743893146515,-0.343757182359695,0.367145150899887,-0.791305720806122,0.773362278938294,0.190072908997536,0.111157611012459,-0.695746779441834,-0.292391926050186,1.57203733921051,-0.734438061714172,2.09531474113464,-1.51306676864624,1.97358202934265,-1.83986294269562,0.653922975063324,-0.053012028336525
002_ff.jpg,0.208135575056076,0.597020864486694,2.38263630867004,2.1111261844635,1.59176516532898,-1.05078136920929,3.18698668479919,-1.15671324729919,0.065444327890873,2.18172788619995,1.74342882633209,-1.70015859603882,0.587351381778717,-2.94210910797119,-1.24003982543945,1.50787901878357,-1.1701592206955,0.196630820631981,-2.07194805145264,0.295812457799912,1.39519906044006,1.87052929401398,1.67490673065186,0.922329246997833,0.733563780784607,0.303680539131165,0.526207685470581,1.32560420036316,-0.430887043476105,0.582764506340027,0.189465790987015,-0.386287480592728,-1.3387199640274,-0.663324058055878,2.89917230606079,-1.16375851631165,-1.12088084220886,-0.36673492193222,0.505955457687378,0.977042078971863,-1.44093501567841,-0.070706345140934,1.16591441631317,0.0614871680736542,1.6873961687088,1.40958571434021,0.0242164954543114,-0.365771949291229,-0.787503957748413,1.59591102600098,-1.6228152513504,-0.386995434761047,0.6683469414711,0.645743608474731,-1.94996094703674,0.5656898021698,0.867833554744721,-1.01645028591156,-1.60350251197815,-0.781346321105957,-0.075366199016571,0.660552024841309,0.143193781375885,-2.16490435600281,-1.6668529510498,-0.125639110803604,-0.058937169611454,1.39578747749329,0.523367822170258,0.13516528904438,-0.919283807277679,-0.0344390198588371,-0.372931510210037,-0.643352508544922,-1.0953676700592,-0.674522221088409,-0.0923123210668564,0.804192543029785,-0.401341050863266,0.575348198413849,2.1002471446991,-2.0693736076355,0.109925866127014,-0.57958847284317,1.54815399646759,-0.343072414398193,1.44354462623596,-0.121787250041962,0.680764675140381,0.251828789710999,-0.208396315574646,1.55538380146027,1.36253941059113,1.79825484752655,0.944410741329193,-0.266529232263565,-0.669449329376221,-0.507849872112274,-0.195987150073051,-1.31177031993866,0.592252552509308,0.658157527446747,0.213597133755684,-2.81190776824951,0.247125238180161,0.342223346233368,-0.657003700733185,0.239960446953774,-1.29214560985565,-0.140996590256691,1.7248592376709,0.641429126262665,0.865020275115967,0.479583024978638,0.00396799668669701,2.51477742195129,-0.437590062618256,-0.00844950973987579,-0.868899643421173,0.643163561820984,0.408982872962952,-0.75702702999115,-0.192150443792343,0.0833350941538811,1.14850163459778,-0.874593615531921,-0.650651395320892,0.0535627938807011
003_ff.jpg,-0.510554313659668,-1.26086819171906,-1.08919942378998,0.719879329204559,1.37973999977112,0.498107105493546,0.132702723145485,-0.873908400535584,-0.485416144132614,3.54608392715454,-1.40137529373169,-1.16296374797821,-1.86514210700989,-1.21619534492493,0.401621520519257,1.28709161281586,2.63522481918335,0.339547514915466,0.647453188896179,-1.8423615694046,-0.330004096031189,0.310246616601944,0.95389324426651,0.974799633026123,0.0766895264387131,0.306116729974747,1.60797142982483,-1.08954322338104,0.902594447135925,1.59036684036255,1.41885840892792,-0.727700233459473,0.793670117855072,0.304934442043304,1.02678966522217,0.22674024105072,-1.26415753364563,0.975391626358032,-0.483947455883026,-0.847474694252014,-1.67879223823547,-0.904557764530182,0.368089258670807,1.74467396736145,2.32006287574768,-1.02993869781494,-0.752878308296204,0.482321500778198,1.06513798236847,0.0579038634896278,0.102332025766373,-0.411729007959366,-1.28940582275391,0.362095028162003,-0.53776627779007,0.25004643201828,-0.39677432179451,-1.41174447536469,-0.632713615894318,-1.61689221858978,-2.6666042804718,-1.00910687446594,0.969437956809998,-0.03349569439888,-0.202936440706253,0.641781806945801,-0.982725620269775,1.51877152919769,0.0348695889115334,-0.0910562574863434,-0.358489841222763,-0.838005900382996,-0.339529126882553,-0.545509040355682,1.16363537311554,-0.126473262906075,-1.19149696826935,-1.37554430961609,-1.35595631599426,0.225956901907921,-0.888888657093048,1.90957140922546,-1.04574108123779,0.905119597911835,0.164818361401558,0.677830100059509,-0.800804257392883,-0.030684694647789,-1.92968785762787,1.05582392215729,0.199183955788612,1.435955286026,1.21167814731598,1.38839828968048,-0.625324368476868,-1.23171257972717,-0.854538321495056,1.00844788551331,-0.523792266845703,1.15184581279755,-0.679106056690216,-0.447654455900192,0.140008702874184,-0.0585744418203831,-1.04580867290497,-0.563598394393921,-2.80438375473022,0.578667521476746,-0.980444610118866,-1.13758444786072,-0.889204859733582,0.452955543994904,-0.334930449724197,0.872700333595276,0.675515651702881,-0.506803393363953,1.05305075645447,-1.31552755832672,-0.546606242656708,0.705364406108856,2.24122667312622,-0.900883674621582,-0.108291760087013,-0.249785736203194,-0.988431453704834,-0.67645525932312,0.775824189186096,-0.00815736688673496
004_ff.jpg,-1.84552717208862,-0.95972752571106,-0.540004730224609,1.07154703140259,1.06584715843201,1.18550157546997,-1.45044231414795,0.487182378768921,0.274176478385925,0.977033853530884,0.201892971992493,-2.03809332847595,-0.462510645389557,-2.1373143196106,0.407365173101425,0.695593655109406,3.04170227050781,-0.0433214604854584,-0.64274275302887,-0.405393421649933,2.04355072975159,-0.831629574298859,1.03368484973907,-0.68116170167923,-2.24807500839233,-1.73958277702332,-0.665740489959717,0.634141385555267,-0.977164387702942,0.94616973400116,-0.0400720462203026,-1.11987853050232,-0.54794305562973,-0.690620183944702,2.62165236473084,0.288999438285828,0.456429064273834,-0.0370130091905594,1.14384579658508,-0.713647484779358,-0.738591909408569,0.226466774940491,0.521491169929504,0.207077205181122,0.535596966743469,0.335568755865097,0.513989210128784,-0.0434404909610748,-0.212173730134964,0.932594895362854,-0.609666645526886,0.907447934150696,-0.394393086433411,0.316435277462006,0.502559244632721,0.839190483093262,-0.0717593878507614,-1.08437705039978,-0.681261897087097,-1.4435396194458,-0.605394721031189,0.0279707387089729,1.63532221317291,1.41436696052551,-0.773099482059479,0.822105705738068,-0.0678340569138527,0.95872688293457,-0.576714038848877,-0.778301358222961,-0.273019105195999,0.131818443536758,-0.90402102470398,-1.91786122322083,1.28991270065308,2.15588665008545,-1.58586883544922,0.230902656912804,-1.78471851348877,-0.330635756254196,-0.848396122455597,0.664525270462036,-0.37251490354538,0.42762017250061,0.633118808269501,-1.01372587680817,-0.766929864883423,-0.183134868741035,-3.10934400558472,-0.969808697700501,0.594131648540497,0.70650988817215,-0.468321740627289,2.49411273002625,-0.606441497802734,-0.302874743938446,-0.523308396339417,-0.320036500692368,-1.33389759063721,0.777913689613342,0.374748468399048,0.828488409519196,-1.07158946990967,0.254503756761551,-0.307132840156555,-0.494511842727661,-1.23481559753418,-0.601415634155273,-0.365747570991516,0.425252228975296,0.069164864718914,-0.387942790985107,0.636221766471863,0.965270400047302,-2.31958174705505,-0.36871001124382,0.442361444234848,-0.888988494873047,-2.50151491165161,0.155956119298935,0.341184258460999,-0.824063301086426,1.75726020336151,-2.01354336738586,-1.06579983234406,-1.30895817279816,0.693202495574951,-0.781843900680542
005_ff.jpg,0.796077728271484,0.0484476685523987,-0.148148030042648,-0.75613808631897,1.16370153427124,0.315431207418442,1.19827938079834,0.986894071102142,0.208312273025513,-0.219251990318298,-0.0384692028164864,0.542296350002289,1.692054271698,0.349706172943115,0.96998918056488,2.10741782188416,1.43978571891785,-1.62422251701355,-1.31845498085022,-1.23571610450745,-1.73207926750183,-0.553781509399414,1.23428618907928,1.22711765766144,0.393520921468735,-1.30697190761566,0.494789212942123,1.1685848236084,-0.768713176250458,0.868275105953217,0.227373108267784,-2.89806914329529,0.452854841947556,-0.712003231048584,0.536916732788086,-1.8655219078064,-0.215875953435898,1.96578562259674,1.54371356964111,3.00139236450195,-1.56629168987274,-0.841406404972076,0.890271067619324,-1.54434275627136,1.11917304992676,-0.481563836336136,-0.687166035175324,0.809008359909058,1.21807074546814,-0.270798891782761,-1.73263490200043,1.64699590206146,0.219330698251724,-1.06958746910095,0.493206024169922,0.341730654239655,1.25433957576752,0.992762207984924,1.0511999130249,0.99418044090271,0.25485634803772,0.499311566352844,1.24833929538727,1.05565452575684,-0.583512306213379,-0.465831995010376,-1.34777116775513,0.962832927703857,-0.760602414608002,-1.45932006835938,-0.60774564743042,1.35434567928314,0.0965011715888977,-0.0368299409747124,0.257768958806992,-0.208919495344162,-0.824098825454712,0.662606716156006,0.484631836414337,-1.19840180873871,-1.19296526908875,0.823219060897827,-0.818778693675995,-0.942528963088989,-0.076911024749279,-0.336912304162979,0.0542924925684929,-1.72050738334656,-1.93680202960968,-0.182906478643417,0.747542262077332,0.180804029107094,1.71710133552551,-0.66791433095932,0.449509739875793,0.676315665245056,-1.23748981952667,1.21416759490967,-1.98502945899963,0.454155534505844,0.864707708358765,-0.0313519611954689,0.173518463969231,0.635845839977264,-1.00074458122253,-0.17079059779644,-2.06159114837647,-1.96838307380676,-1.82248198986053,0.12569335103035,0.504530847072601,1.39504981040955,1.57349455356598,-1.10000097751617,-0.685890734195709,-0.123390465974808,-0.24134635925293,1.26439905166626,-0.0137947350740433,0.86638069152832,0.534263253211975,0.386495292186737,0.736930787563324,-1.76304686069489,-1.74505412578583,0.770004272460938,-0.0311280339956284,-1.90601408481598
006_ff.jpg,-1.12673807144165,-0.631192684173584,-0.380098938941956,0.201062440872192,1.54714131355286,-0.036826778203249,-0.187379896640778,0.0707270950078964,0.96415251493454,2.96541357040405,-0.444358021020889,-1.0399956703186,-0.5712651014328,-0.759168744087219,-0.270716816186905,1.3163286447525,2.40713572502136,0.245265528559685,0.410280913114548,-0.494758486747742,2.58170032501221,0.132572755217552,0.789396703243256,1.53560721874237,-0.977478861808777,-1.31767570972443,-0.240697294473648,-0.942671179771423,0.315580099821091,-0.232567504048347,0.646297931671143,-0.731036186218262,1.69964551925659,-0.543308258056641,1.64550375938416,-0.566689908504486,-0.80018550157547,0.594061553478241,-0.6895911693573,-0.776367783546448,-2.76614665985107,-0.690561711788178,0.521941721439362,0.108453497290611,-0.939737379550934,0.0399922356009483,-1.63429927825928,0.463592916727066,0.549677968025208,0.569382190704346,-0.213712379336357,0.185430347919464,-2.027423620224,0.017922542989254,0.443973690271378,0.558908104896545,-1.3356466293335,-2.20207619667053,-0.764004588127136,-0.998668789863586,-2.61149120330811,0.785552263259888,0.935249507427216,-0.109044760465622,-0.368028700351715,0.649472177028656,-0.459341764450073,3.12545680999756,1.12814378738403,1.13714909553528,-0.621482610702515,-0.532606959342957,-0.216300934553146,-1.83302664756775,0.358368158340454,0.0347061231732369,-0.327443987131119,-2.97177171707153,-2.84112548828125,-0.767869770526886,0.105372123420239,-0.0507289618253708,-1.35400629043579,0.735531687736511,0.742720365524292,0.714068412780762,-1.5943363904953,-0.686193227767944,-1.93233525753021,0.508763492107391,1.85211491584778,0.913374364376068,1.65867030620575,1.38944375514984,-1.23975396156311,-0.63164496421814,0.280349552631378,2.05962491035461,-0.783364474773407,0.553397953510284,-0.30866551399231,0.0461521595716476,0.701688528060913,-0.430775225162506,-0.796215295791626,-1.53261065483093,-1.2471045255661,-0.832429170608521,-1.11775517463684,0.227362975478172,-0.0826344937086105,-0.30915093421936,-0.430185586214066,0.972158551216126,-0.439169496297836,-1.54441845417023,1.16579139232636,-0.460582911968231,-0.428761214017868,0.973286032676697,0.792532086372376,-0.0396371856331825,-0.0472471937537193,-0.559357702732086,0.161371231079102,-1.06193816661835,0.402142435312271,1.67985904216766
007_ff.jpg,0.00787123292684555,-1.90146780014038,-0.0422311536967754,0.818373501300812,0.752821683883667,0.348075300455093,0.541446566581726,0.878791570663452,-0.970866441726685,2.98238134384155,-0.996608376502991,-1.80898380279541,0.673149883747101,0.287666171789169,-0.653003215789795,0.878479540348053,1.74885296821594,-0.934651136398315,-0.251309782266617,-1.17981135845184,1.5070458650589,0.237696811556816,0.954847633838654,-0.316168129444122,-1.30670189857483,-1.82166659832001,-0.105830453336239,-0.19685298204422,-1.21119749546051,-0.265385031700134,-0.401691108942032,0.131847754120827,-0.147964671254158,-1.35924673080444,1.66952466964722,-0.996510088443756,-1.00504159927368,2.04199934005737,0.443210154771805,-0.546232461929321,-1.14387333393097,0.363292247056961,1.29258620738983,-0.0402038097381592,0.406461030244827,-1.1360102891922,1.04946208000183,1.41920065879822,0.105698853731155,1.6099910736084,-2.37521624565125,2.44649171829224,-1.74335062503815,-0.257284879684448,-0.266785383224487,0.967560887336731,-0.0381648205220699,0.360158383846283,-1.13715839385986,0.120535276830196,-0.815347731113434,-0.224108546972275,0.264651328325272,1.37904369831085,-0.444025486707687,-0.645923316478729,-0.352912217378616,1.65254557132721,-1.25500535964966,0.836244821548462,-0.912804007530212,0.226912677288055,0.252054154872894,-1.53512096405029,1.8669525384903,-1.09560835361481,-1.36699879169464,-1.40376615524292,-2.66978120803833,-0.656448721885681,0.365728944540024,-0.884195685386658,0.41998615860939,0.734176635742188,-0.396479934453964,0.593432188034058,-0.510929465293884,-2.34203767776489,-0.924091219902039,-2.0855770111084,0.280119001865387,0.695816278457642,0.754180073738098,0.338498324155808,1.39606916904449,0.37353789806366,-1.30278587341309,0.129547998309135,-1.23574590682983,-0.241618365049362,0.198653385043144,1.65132093429565,-1.72218751907349,-1.53542590141296,0.616204500198364,-1.90355777740479,-0.14833028614521,-1.24343597888947,0.812223374843597,0.2411919683218,-0.590863049030304,0.332977831363678,0.372337192296982,2.55952286720276,-2.61511731147766,-1.61410999298096,0.135606944561005,0.104140639305115,-3.25430178642273,0.306027770042419,0.222108125686646,-0.453084677457809,0.347009718418121,-0.178294390439987,-0.605699896812439,-0.329601317644119,0.383476346731186,0.144384652376175
008_ff.jpg,-0.965885162353516,-0.0394180603325367,-1.035280585289,0.0420897826552391,0.225619345903397,0.219681695103645,1.54958868026733,-0.826137125492096,-1.03838169574738,1.13388800621033,0.232141047716141,0.0569629594683647,0.593971610069275,-0.513141512870789,1.45763671398163,1.31051445007324,1.04528081417084,-2.03907227516174,-2.57540082931519,-2.7099301815033,-0.231238469481468,-0.597135782241821,0.633526146411896,-0.918582737445831,0.696252942085266,-0.480173766613007,1.84821009635925,0.852220237255096,0.599441647529602,-0.899939715862274,0.358211606740952,-0.594999372959137,2.66329741477966,-0.97299462556839,2.41456580162048,-0.960977494716644,-1.16838777065277,0.623268783092499,-0.190281510353088,-0.106329515576363,-1.48633253574371,-0.228576317429543,-1.21532416343689,-1.64957165718079,1.17954790592194,-1.55311048030853,-1.03327894210815,1.97762060165405,0.435688018798828,-0.71497392654419,-1.28677582740784,1.46192562580109,-1.35050415992737,1.28630590438843,1.72444772720337,1.86552047729492,0.812939584255219,0.143919855356216,-0.0554387718439102,-1.98610651493073,-0.424930512905121,-0.222633793950081,0.771232128143311,1.18965339660645,-0.0214986614882946,1.20947778224945,-1.34601879119873,1.67246377468109,-0.673980474472046,-0.226399227976799,-0.986203908920288,0.036190077662468,0.231652528047562,-0.6070636510849,0.48485478758812,-0.908482789993286,-0.495298266410828,-0.706868588924408,0.176536947488785,-0.555929362773895,-0.518851757049561,1.91074585914612,-1.44149208068848,0.167519018054008,0.851011455059052,-0.238550990819931,0.0162168778479099,-1.34203481674194,-0.877328753471375,0.0732451230287552,-0.783816337585449,0.272268682718277,3.28008961677551,-0.557745099067688,0.624557256698608,1.57815229892731,-0.135850757360458,2.15378427505493,-1.04748320579529,0.318215370178223,-1.1632137298584,-0.866466403007507,-0.816774547100067,2.60054111480713,1.64248073101044,0.710729122161865,-0.908889710903168,0.096048042178154,0.809954822063446,1.18428981304169,-1.05454123020172,0.545633673667908,0.468033522367477,0.0585207939147949,-1.41612601280212,0.82179069519043,-0.437828481197357,-0.0375301390886307,0.334074407815933,-0.898580610752106,1.36749708652496,0.551346778869629,1.24834883213043,-0.213757082819939,0.861391127109528,1.8080974817276,0.325888395309448,0.30139571428299
009_ff.jpg,-0.814477801322937,0.303736925125122,-0.698790907859802,3.6871166229248,1.59193062782288,-0.100388184189796,1.3275134563446,-0.357501775026321,0.831618666648865,2.35696792602539,0.665528118610382,-2.00895285606384,-0.652758181095123,-1.22240948677063,-1.80698943138123,-0.107666455209255,0.819515585899353,-0.320111095905304,-2.17273187637329,0.103920988738537,1.2205822467804,1.04266750812531,0.409183174371719,-0.125866889953613,0.989017188549042,-0.44608211517334,1.96420800685883,-0.369197458028793,0.145242214202881,0.102290645241737,1.48732495307922,-0.229438468813896,0.595619559288025,-1.54294383525848,1.55581283569336,-1.06757366657257,-1.05474328994751,0.193358182907105,1.16450762748718,-0.292668849229813,-1.08434653282166,0.837268650531769,0.0551964491605759,0.3178790807724,0.5101158618927,1.49816358089447,-1.23281800746918,0.618826508522034,-0.446979343891144,2.03387808799744,-0.832320332527161,1.95083010196686,1.38326573371887,1.0955982208252,0.722218573093414,0.934729099273682,0.570250630378723,-1.9710396528244,-1.56202268600464,-2.1713764667511,-0.47438982129097,0.239549651741982,0.67723560333252,-0.33778241276741,0.112113408744335,0.465141117572784,-1.39578366279602,1.79358470439911,-1.43371117115021,-0.227568805217743,-1.17744159698486,0.27766078710556,-1.0986088514328,-2.24221849441528,-0.367317527532578,-0.553815364837647,0.153880447149277,0.467163056135178,-0.566920757293701,0.951647043228149,0.39863047003746,-0.0610095858573914,1.6054699420929,0.443218529224396,1.23050141334534,1.47366511821747,-1.15699899196625,0.115310966968536,-1.00824916362762,-1.26725268363953,0.285194933414459,1.97751402854919,0.78190553188324,2.94244003295898,1.44707274436951,-1.10258960723877,0.206729263067245,-0.147608205676079,-1.16462635993958,-1.30463719367981,0.171902224421501,2.03670835494995,-0.372022062540054,-0.628206074237824,-0.357055068016052,0.11459518969059,-0.820534825325012,0.884947776794434,-0.976316094398499,-0.584786057472229,0.116215586662292,0.294179081916809,0.669686436653137,0.856399297714233,-1.84158134460449,1.71443021297455,-0.867286920547485,0.12456176429987,-0.50835531949997,-0.102388486266136,0.549268186092377,-0.35768923163414,0.996067464351654,-1.9125269651413,0.479496717453003,-1.16060125827789,0.361062616109848,1.05952250957489
010_ff.jpg,0.793753385543823,-1.21349394321442,0.615183472633362,0.284629285335541,0.565162539482117,2.14833664894104,-0.410873681306839,0.499405115842819,1.22783720493317,1.15945065021515,-1.09850633144379,-0.779637753963471,-0.227822184562683,-0.429030179977417,-1.29578506946564,0.9521124958992,0.998118877410889,0.531999349594116,1.7111781835556,-0.647165775299072,-1.21064031124115,1.37011587619782,0.879644572734833,0.475302010774612,-1.47022378444672,1.10406279563904,0.0774139389395714,-1.41149055957794,0.159105762839317,0.480513423681259,0.17536136507988,-0.932206213474274,0.722666323184967,-0.0525843054056168,2.03497076034546,0.653917908668518,-1.16870701313019,0.148424535989761,1.09022521972656,-0.232502311468124,-0.313604861497879,-0.992037355899811,1.97095358371735,0.197345107793808,2.97978758811951,-0.645499110221863,-0.374008357524872,1.0796662569046,-0.79366135597229,-0.0051518976688385,0.882784485816956,-0.68645304441452,-1.80369365215302,0.128014922142029,-1.37530791759491,-0.119006797671318,1.07779812812805,-0.502059876918793,-1.39726161956787,-1.73190641403198,-0.522107899188995,-0.326156914234161,1.16938495635986,0.961951076984406,-0.990511476993561,0.275306969881058,-0.0770837441086769,-0.713058352470398,-0.278475612401962,-0.892880320549011,1.23415076732636,-2.35136008262634,-0.330613791942596,1.53596317768097,2.09880471229553,-0.716274738311768,-1.35074126720428,0.117910727858543,0.786837041378021,-0.357824504375458,1.57128751277924,-0.342387735843658,-0.319419592618942,-0.0810288935899735,0.317942500114441,-1.53218150138855,1.48099851608276,0.54228937625885,-1.21805942058563,-0.413180261850357,-2.04759311676025,2.01920795440674,0.838518381118774,0.584845721721649,-0.797574460506439,0.329849183559418,-1.52122604846954,0.0659085586667061,-2.80796027183533,0.182266712188721,-1.2080465555191,-0.691076397895813,-0.688121736049652,-0.296102672815323,-1.04221415519714,-0.0922569632530212,-1.36519861221313,-0.823983430862427,-0.932962536811829,-0.82752275466919,0.751760363578796,0.782270133495331,0.119167849421501,0.714222550392151,-0.537638783454895,0.0304779335856438,0.658366560935974,-0.568896412849426,-0.672216951847076,-0.739948511123657,-1.164137840271,-1.27683210372925,1.32295334339142,1.6668541431427,0.976393282413483,-0.0878006219863892,0.399856805801392,-0.457275360822678
011_ff.jpg,0.145751282572746,-0.0503438040614128,0.281182110309601,-0.169177502393723,0.254347026348114,-0.576875448226929,0.34161588549614,0.947029232978821,-1.59648442268372,0.332718998193741,-0.560711026191711,-0.105779595673084,0.544294536113739,-0.412781953811646,1.1096967458725,0.189537420868874,0.559254884719849,-0.368876695632935,0.679663062095642,-1.56595313549042,-0.437863171100616,-0.339309394359589,-1.02102339267731,-1.49099838733673,-2.50031042098999,-3.86583590507507,-0.334926933050156,1.13606810569763,-3.51378774642944,0.522953689098358,-0.590222239494324,0.141248896718025,0.567849218845367,-0.690227329730988,-0.3403080701828,0.125004395842552,-0.264651149511337,-0.644267976284027,0.133113697171211,0.0885609835386276,-1.1880544424057,0.703266203403473,0.103882640600204,-0.30769819021225,0.303628116846085,-0.607221484184265,-0.333851426839829,2.00480914115906,0.412684202194214,2.00086379051209,-2.09978151321411,0.752673745155335,-0.204653859138489,1.55331170558929,0.916700780391693,0.25388565659523,-2.08225536346436,0.505208015441895,-2.13139295578003,0.475471645593643,-2.25489139556885,-0.632924139499664,0.645308792591095,1.446453332901,1.62855994701386,-1.37948822975159,-1.40126872062683,1.01411128044128,-1.56559371948242,0.719372987747192,-0.0379358381032944,1.14103269577026,-0.398332893848419,-0.913999140262604,-0.0177633576095104,-0.302402406930923,-2.13183784484863,-0.328432440757751,-0.754256963729858,0.817664504051209,0.695520877838135,-0.264506846666336,-0.147598132491112,-0.372694998979569,1.04929268360138,-0.949780583381653,-1.01564025878906,-0.861977934837341,-1.79770469665527,-1.46344518661499,0.874587714672089,1.41670453548431,-0.261937618255615,0.207731127738953,0.120634853839874,-0.0343018770217896,-2.31018280982971,0.265144020318985,-0.0822366774082184,0.925246715545654,0.577785670757294,1.17174732685089,-0.548365592956543,-1.32852828502655,-0.967974126338959,-1.70694696903229,-0.71742057800293,-1.59930825233459,-0.794103562831879,-1.07285845279694,-0.991592109203339,-0.732063710689545,-0.930286645889282,1.6955726146698,-1.66443884372711,-0.479368776082993,1.55930697917938,0.496820420026779,-1.33267438411713,2.56507277488709,-1.05913281440735,-0.72788393497467,1.38831913471222,-0.798346042633057,-0.992061018943787,0.588463306427002,-0.416833579540253,1.51805508136749
012_ff.jpg,-1.57509708404541,-0.693944096565247,0.164625465869904,0.489137023687363,1.43981695175171,1.0411571264267,-0.884795725345612,-0.921092927455902,1.37373113632202,0.649584531784058,0.312003016471863,-1.68381774425507,-2.1596405506134,-1.76276302337646,0.0725497156381607,-1.1974104642868,1.41999411582947,1.05413138866425,-0.567234516143799,-0.603519022464752,1.10058987140656,-1.13741111755371,1.40277600288391,0.490225404500961,-1.65467190742493,-1.22279417514801,0.798902273178101,-1.49679827690125,-0.422754943370819,1.71520924568176,1.64104688167572,-1.35371065139771,0.479116916656494,-0.414519727230072,1.76822018623352,0.173724129796028,-2.00297498703003,-1.07254707813263,0.356096208095551,-0.0272739604115486,-1.2729823589325,-2.322678565979,0.614500045776367,0.0899700373411179,3.30273485183716,-0.553059875965118,-0.617253005504608,0.68165910243988,0.821370363235474,-0.745534777641296,0.281334519386292,-0.554361999034882,0.0594860427081585,-0.163960322737694,-0.680933356285095,-0.0792421326041222,-0.157322227954865,-2.16910171508789,-2.62079095840454,-1.11674618721008,-0.555693507194519,0.137314409017563,1.3992223739624,-0.441680520772934,-1.31750464439392,1.34956860542297,0.154812455177307,0.960312724113464,0.159781664609909,-0.0951385274529457,0.378531187772751,-0.891534924507141,-0.233221769332886,-1.05659604072571,0.439277797937393,-0.14745981991291,-0.34218043088913,-1.05866277217865,-1.16866886615753,0.0480271279811859,-0.0912960693240166,1.36876392364502,-0.133184283971787,0.288100808858871,0.936781048774719,0.519246697425842,-0.785680651664734,-0.174908921122551,-1.15193855762482,-0.231972962617874,-0.0306314453482628,2.18159818649292,0.648719549179077,3.64528679847717,-0.696921229362488,-0.110398903489113,-1.31261253356934,2.02495551109314,-1.80383443832397,0.968581259250641,0.72064608335495,-1.23601365089417,1.70788645744324,0.835977911949158,-0.11725976318121,-0.412120401859283,-1.88824760913849,0.631328701972961,-1.9054194688797,-1.0304970741272,-0.669914782047272,0.0618241764605045,-0.591293334960938,-0.31715539097786,-1.16686999797821,0.426662236452103,0.488352090120316,-0.105855911970139,-1.24006342887878,0.57747483253479,-0.207355841994286,-0.201803117990494,0.990098118782044,-0.772862553596497,-0.504208624362946,-0.605661928653717,-0.873174726963043,0.235050693154335
013_ff.jpg,0.181295186281204,0.33930492401123,0.0869838297367096,2.55769205093384,0.996692895889282,1.38470113277435,0.690720498561859,-0.503423452377319,1.4951034784317,0.774379432201386,-1.68593800067902,-0.383782058954239,0.126959562301636,0.186107933521271,-1.31331396102905,-2.12952065467834,0.33474799990654,0.772482573986054,-0.259713023900986,-0.612175762653351,0.45359280705452,0.675114274024963,-0.510719120502472,-1.28463840484619,0.316599249839783,-0.245450764894485,2.26956176757813,-1.53890001773834,-0.140102088451386,-1.06040334701538,0.785796046257019,0.228993818163872,0.0346163585782051,-1.99530327320099,0.198558360338211,-1.70188629627228,-1.0760840177536,-0.954771339893341,0.900388658046722,-1.27405965328217,-0.967350840568543,-1.30370533466339,0.0450853630900383,-1.19796097278595,0.957098543643951,1.62715578079224,-1.06938111782074,-1.0790593624115,-0.678844213485718,-0.562996745109558,-1.08943593502045,0.468093812465668,0.85343736410141,0.153658747673035,1.49375820159912,-0.609825432300568,0.221508234739304,-1.81881392002106,0.71571409702301,-2.41280770301819,-0.522382915019989,-0.119439728558064,2.0130774974823,-0.20171132683754,-0.173282891511917,-0.421996533870697,-0.0987394973635674,-0.0556104555726051,-2.00886559486389,-0.557358503341675,-0.357166975736618,-0.0727310329675674,-1.56419265270233,-0.412787914276123,0.175845041871071,0.0763609111309052,-0.0606830753386021,1.08480584621429,0.949322640895844,0.120015114545822,1.57315075397491,0.323418408632278,-0.955202400684357,-0.491503953933716,0.981341540813446,0.303755164146423,-1.77891993522644,-1.03538656234741,-1.96727049350739,-1.73463320732117,0.0122916325926781,1.05858027935028,-0.554772615432739,0.377705514431,-0.450915694236755,-0.686895072460175,-0.458244860172272,1.19028663635254,1.65203547477722,-1.02113258838654,-1.62931084632874,1.19680726528168,1.55523920059204,-0.608451068401337,-0.842973530292511,1.33426702022553,-1.83300650119782,0.920762300491333,-1.66441059112549,-1.13702189922333,-0.309671849012375,0.715154886245728,-0.840225338935852,-0.495106279850006,-1.06393492221832,2.48242664337158,-1.3452684879303,0.749407529830933,-1.27640247344971,2.01476550102234,-1.07826220989227,-0.187800854444504,1.13936650753021,0.110110372304916,0.265103042125702,1.177454829216,0.323968559503555,0.151764631271362
014_ff.jpg,-0.194214791059494,-2.48751425743103,0.707882046699524,1.41199696063995,0.215594634413719,0.570940792560577,-1.60530424118042,-0.658842384815216,0.516934871673584,2.52062821388245,-1.33160841464996,-0.892514526844025,-1.22320461273193,-0.944292068481445,-1.1988388299942,-0.766070783138275,2.07184433937073,0.541026532649994,-0.187843859195709,-2.36617565155029,0.840003848075867,-1.09325671195984,1.63770890235901,0.604316115379334,0.745819747447968,-0.254280120134354,0.174377575516701,0.214948907494545,0.748469591140747,0.677240371704102,1.57020223140717,-0.073581650853157,0.961143136024475,-1.36318111419678,1.85808324813843,0.392266839742661,-1.45901906490326,1.35146117210388,-0.542479276657105,0.558840036392212,-1.32631194591522,0.621390819549561,1.74536609649658,-0.279194504022598,1.73896431922913,0.532012522220612,0.0510930009186268,1.03014099597931,-0.571970820426941,-0.413911402225494,0.582311630249023,-0.775673925876617,-0.277041792869568,-0.540095686912537,0.878176212310791,1.20529317855835,0.604085624217987,-0.914994359016419,-1.11050355434418,-0.926258504390717,-0.40270346403122,-1.02957499027252,0.555397927761078,-0.126771584153175,-0.68744021654129,0.181925743818283,-0.743076026439667,2.70632457733154,0.0180840715765953,-0.714407444000244,-0.1764315366745,-0.154422223567963,-1.42390966415405,-0.221078380942345,1.27064895629883,0.182358101010323,-0.979875922203064,-0.458101511001587,-1.11792612075806,-0.618420243263245,1.02770793437958,-0.00823023915290833,-0.0520889721810818,0.123600974678993,-0.891967952251434,-0.19141660630703,0.261628329753876,-0.352506399154663,-1.95011579990387,-0.00667086429893971,-0.357406914234161,1.2903106212616,1.11458337306976,1.85262906551361,0.152511984109879,0.588889718055725,-1.51637053489685,1.71495401859283,-0.369683831930161,0.414921075105667,-0.0614432692527771,-0.0908440500497818,0.0623941347002983,-2.34149551391602,-0.95901894569397,-1.6586480140686,-2.80652236938477,-0.442084401845932,-0.317022264003754,-1.95193946361542,-0.942762315273285,0.510795295238495,-0.534143090248108,-0.234346657991409,-0.482924818992615,0.877075910568237,0.570186495780945,-0.150844752788544,-0.846188008785248,0.917649507522583,0.258485287427902,-2.18809461593628,0.706705510616303,0.161995217204094,1.12828528881073,-0.0621371380984783,0.120073817670345,0.395661473274231
015_ff.jpg,1.05658090114594,-0.478678524494171,-0.321283906698227,-0.268172562122345,-0.307716906070709,0.97323340177536,-0.248268380761147,-0.0233517996966839,0.0757792219519615,0.610284090042114,-0.420321136713028,-1.20398461818695,0.471216440200806,-0.677229642868042,0.820756912231445,1.1855536699295,1.86689281463623,-1.24358260631561,0.278748691082001,-1.96955478191376,1.15655946731567,-1.3266693353653,1.02856016159058,1.62573897838593,1.27717590332031,0.299642860889435,1.63841009140015,0.0362096801400185,-0.0275639668107033,-0.292656689882278,-0.813667416572571,-0.640364944934845,0.822206079959869,0.0174211263656616,1.89276039600372,-0.251962512731552,-1.49811267852783,1.68178343772888,1.1824676990509,2.46061229705811,-1.18925404548645,-1.26561415195465,-0.425060898065567,-2.10027503967285,0.00852242950350046,-0.214652195572853,0.509369432926178,1.17722964286804,0.650982201099396,-1.71901404857636,-1.21694910526276,0.810720920562744,0.540323138237,-0.888482987880707,2.96813941001892,1.002081990242,1.25853943824768,-0.166627451777458,2.37312078475952,0.0564414486289024,-0.68269670009613,-1.38794279098511,0.576865613460541,-0.898725509643555,-0.646944582462311,-0.838750600814819,-0.596052289009094,0.917939424514771,-1.61616921424866,-0.503574252128601,-0.21222785115242,-0.243462830781937,0.137080043554306,0.0754213184118271,0.362584561109543,0.832861721515656,-0.350767374038696,1.24846792221069,-0.749812483787537,-1.50583362579346,-0.627248466014862,-0.76501190662384,-1.59492254257202,-0.689334034919739,2.49480056762695,0.429349631071091,-0.528802692890167,-1.85161232948303,-0.731603741645813,-0.198225274682045,0.873336136341095,1.1369001865387,1.69476115703583,-0.698192775249481,-0.267409205436707,0.927138149738312,-1.16735804080963,1.136643409729,-1.64963388442993,0.0398317128419876,0.232245609164238,-0.632006645202637,0.6572425365448,-0.520556569099426,-0.535490572452545,-0.860806465148926,-1.4807311296463,0.567322611808777,-0.451400607824326,0.434399247169495,-0.125539511442184,0.385108649730682,-0.194062501192093,-1.25174403190613,-1.12065672874451,-0.513543665409088,-0.0633271336555481,0.423212438821793,0.658386707305908,1.26701998710632,1.26869785785675,-0.396398633718491,-0.361866056919098,-1.25184011459351,0.135922133922577,1.57365810871124,0.940038204193115,-1.05709755420685
016_ff.jpg,0.790713310241699,0.10117344558239,1.43545496463776,-0.913499116897583,-0.595151007175446,0.858580112457275,-0.439657747745514,0.691609978675842,-0.548185229301453,-0.219761148095131,-0.30008390545845,-1.06010556221008,0.236824795603752,0.349086672067642,1.1035795211792,0.568927586078644,1.17386066913605,-0.220210239291191,-0.573640406131744,-0.395771771669388,-0.777003288269043,-0.489796340465546,1.59125113487244,0.177716255187988,0.21613085269928,-0.486651539802551,-0.516233086585999,0.467995256185532,-0.920306921005249,-0.290200889110565,-0.61253297328949,-3.63062739372253,0.602086901664734,-0.339534282684326,1.46156227588654,0.96572870016098,-0.584501385688782,0.911731064319611,0.681730389595032,2.20508599281311,-1.91410779953003,-1.29301953315735,0.550382018089294,-0.950451374053955,1.0370090007782,-0.62803590297699,-0.304437100887299,2.0150899887085,-0.0626470595598221,-1.46818995475769,0.462409615516663,0.0613278187811375,0.38625568151474,-1.41316628456116,0.881250500679016,-0.239243119955063,0.472218304872513,1.24743735790253,1.95860111713409,-0.566203713417053,0.246808856725693,-0.651824831962585,0.184867784380913,0.368431955575943,-0.986743271350861,-0.574651658535004,-1.81220853328705,0.499828606843948,-0.882841885089874,-0.380877196788788,-0.665944516658783,-0.888149738311768,-0.165927231311798,-2.29012417793274,0.74555915594101,1.72314214706421,-0.0534422509372234,1.66533362865448,-0.284998387098312,-0.332282960414887,-1.17759823799133,-0.211898043751717,-1.58203136920929,0.127536162734032,1.83430969715118,-0.679224133491516,0.199694499373436,-1.07217800617218,-0.93026876449585,-0.983597755432129,0.782695293426514,0.624390244483948,1.13967311382294,-0.19797146320343,-1.15431356430054,-0.320287764072418,-0.947852849960327,-0.618571281433106,-0.998190224170685,0.953602433204651,1.02062499523163,0.81347930431366,0.927994430065155,0.469725906848907,-1.85344481468201,-0.129960238933563,-1.23274457454681,-1.12660491466522,-0.958461046218872,0.678845822811127,0.52161431312561,0.736392915248871,-0.423585116863251,-0.346575409173965,-0.31961777806282,0.512879729270935,0.312474697828293,0.421593606472015,-0.354877829551697,0.942489862442017,0.528622686862946,-0.0259351097047329,-0.540947794914246,-1.70528364181519,-0.430809795856476,-0.308625310659409,0.592429339885712,-0.333249092102051
017_ff.jpg,0.64120352268219,-0.238607794046402,-0.0634336769580841,0.399230450391769,1.32208478450775,1.40274608135223,0.976387739181519,0.0588487945497036,0.419684886932373,1.81683099269867,0.0759182944893837,-0.290859460830689,-0.219388321042061,-1.2592648267746,-0.576342463493347,1.27347981929779,1.2865743637085,1.0205010175705,1.24230134487152,0.876221299171448,-1.25073397159576,1.80770659446716,1.9244304895401,0.778612732887268,-1.49459671974182,2.00485706329346,-1.51290392875671,-0.624703526496887,0.392539978027344,-0.313399165868759,0.577620029449463,-1.35800850391388,-0.46617603302002,-0.344207644462585,1.92969000339508,-0.541978299617767,0.451802372932434,1.50382018089294,1.28046870231628,-0.839565753936768,-1.67193484306335,0.227815881371498,1.95504856109619,1.29449200630188,1.49816298484802,-0.172916829586029,-0.91957950592041,-0.266917288303375,0.272990465164185,1.97006857395172,0.385270297527313,-1.45791447162628,-1.82279002666473,-0.590042173862457,-1.60648894309998,0.673679530620575,1.20420145988464,0.258207678794861,-1.29900789260864,-1.18093931674957,-1.26855540275574,0.650068640708923,0.713871002197266,0.783884167671204,-1.66461825370789,1.12269830703735,-0.506610751152039,0.24066287279129,1.76955950260162,-0.129949823021889,-0.0622688308358192,-0.808492541313171,-0.755757331848145,1.02052533626556,0.793693721294403,-0.0774450898170471,-2.67928743362427,-1.9361264705658,-0.767903387546539,0.202484264969826,0.945488214492798,-0.424995273351669,-0.457580149173737,0.265358597040176,-0.0420780852437019,-1.47534370422363,1.24131464958191,1.78501534461975,-1.47009718418121,0.215456038713455,-0.9442338347435,0.0498695969581604,0.193816050887108,0.582119584083557,-0.877297163009644,-1.25100755691528,-0.815615594387054,-0.209290012717247,-1.80800414085388,-1.32502031326294,-0.660940170288086,-1.22492253780365,-1.16518783569336,-0.585101962089539,-0.631024658679962,-0.706375062465668,0.187901988625526,-2.3692798614502,-0.118701718747616,-0.64834052324295,1.66139054298401,0.817110002040863,0.565061807632446,2.03551959991455,0.308807939291,-0.170704782009125,0.425324440002441,-1.07068693637848,0.45941561460495,0.400977313518524,0.125184863805771,-0.507670879364014,0.55940306186676,0.986301302909851,-0.762954592704773,-1.76917254924774,0.702508389949799,-0.755294919013977
018_ff.jpg,1.08618211746216,0.914747595787048,0.278531104326248,-0.102010145783424,-1.35396099090576,1.05277359485626,2.19538903236389,-1.31793200969696,-0.313872694969177,-0.311887055635452,0.530924797058106,-0.748859763145447,0.313106238842011,-1.11864423751831,2.62145209312439,0.650870859622955,-0.515573143959045,0.934105932712555,-0.836830377578735,-2.510493516922,-0.854288458824158,-0.568435192108154,2.03927063941956,-0.760115802288055,1.58038651943207,0.566550076007843,-0.24695211648941,0.692493677139282,-0.92001748085022,-0.604818046092987,-0.228891491889954,-1.93409478664398,-0.286269724369049,0.894621789455414,3.5687735080719,-0.463580995798111,-0.910144984722138,0.275073438882828,1.06260752677917,1.3417295217514,-1.29678654670715,-0.448400527238846,-0.45531639456749,-2.25706219673157,0.58091926574707,0.125980973243713,-0.25596097111702,0.381916701793671,1.49056375026703,-1.64556777477264,0.573371887207031,-0.607577323913574,-0.422380685806274,-0.0997497737407684,2.8005838394165,0.583438396453857,0.72778308391571,1.86016714572907,-0.818203032016754,-1.84860229492188,0.946982562541962,-1.02305495738983,0.595217287540436,-0.688637733459473,0.779202997684479,1.08253991603851,-1.239128947258,0.893136084079742,-0.439403533935547,0.646435141563416,1.76458334922791,0.528651118278503,1.03197526931763,-0.784525334835053,-0.239713221788406,0.574831783771515,-1.18771994113922,1.8956333398819,0.0585869327187538,1.19008493423462,-0.610257923603058,1.02521014213562,0.337701171636581,-0.398751705884933,0.806096255779266,-0.860750615596771,-0.00437215715646744,-1.08240628242493,-0.29652813076973,-0.102749779820442,1.00313568115234,0.0475336313247681,0.800143957138062,0.952726125717163,-0.808678805828095,1.49773263931274,-1.19255495071411,2.66339349746704,-0.00955085456371307,0.199264943599701,-0.347126722335815,-0.622487723827362,0.0581457577645779,1.85065472126007,0.174833595752716,0.936143517494202,-0.947872579097748,1.11874186992645,-0.615285217761993,-0.20345601439476,-1.02000725269318,1.38397717475891,0.0698198452591896,-2.08017206192017,0.511221647262573,1.82065796852112,0.977742195129395,-0.25483301281929,1.49010360240936,-0.58020293712616,1.04805743694305,0.0649534314870834,1.26762223243713,-0.961658537387848,-0.52546763420105,0.719458699226379,-1.76698625087738,-1.42184662818909
019_ff.jpg,1.11403787136078,-0.627726316452026,0.409438878297806,-0.167182922363281,1.06980717182159,0.246666222810745,-0.167615085840225,0.182918816804886,-0.135795846581459,2.23709273338318,-1.1260222196579,-0.841332674026489,-0.743427813053131,-0.859865665435791,-0.793761253356934,0.622060894966126,-0.368373692035675,1.39814293384552,-0.257743954658508,-1.7636946439743,0.31015345454216,1.13941955566406,0.808268666267395,-0.0181631818413734,-0.175774306058884,1.12825286388397,-0.819828629493713,0.723817825317383,0.435982048511505,0.5070680975914,0.109470836818218,1.04956305027008,0.0434296391904354,0.191096782684326,2.66922760009766,-0.962074995040894,-1.48719906806946,-0.659405410289764,0.227950900793076,-0.74235463142395,-1.22076487541199,-0.809698224067688,1.25223112106323,0.403962969779968,2.00298929214478,-0.595438778400421,-1.20774686336517,-0.347968131303787,-0.630467295646668,-0.245165824890137,0.0375305563211441,-1.64465844631195,-0.695349752902985,-0.627158403396606,-0.0293524563312531,0.708310544490814,1.1149160861969,-1.90766394138336,-0.914982736110687,-2.01412868499756,-1.60026621818542,-0.598979234695435,1.27591598033905,-0.331160634756088,-2.21467804908752,-0.319439589977264,-0.483587205410004,-0.605784714221954,1.26546990871429,-1.25806128978729,0.433265924453735,-0.556069135665894,-1.6019092798233,0.853261351585388,0.847988724708557,-1.02942907810211,-1.60002613067627,-0.801439702510834,0.702911078929901,-0.51882940530777,2.95375323295593,-0.70727002620697,-1.45512461662292,-0.0759027227759361,1.00156497955322,-2.28096270561218,-0.455442607402802,0.0287526249885559,-0.0417694076895714,0.840480446815491,-2.11890864372253,0.360743701457977,-0.941055715084076,1.61916661262512,-0.0827094167470932,-0.802950024604797,-0.777014076709747,-0.233980163931847,0.0309200286865234,-0.974663317203522,-0.483025431632996,-1.3846822977066,-1.12610530853271,-1.25157916545868,-0.678677320480347,0.259251415729523,-1.36275398731232,-1.62999105453491,-1.75092303752899,0.315784424543381,1.88068962097168,1.28500437736511,-1.05256950855255,0.943089962005615,1.1921877861023,0.83795166015625,1.29537224769592,-2.0359673500061,-1.51939058303833,0.368984401226044,0.774786591529846,-0.489175170660019,0.207243114709854,1.20464324951172,-0.896994650363922,0.533274829387665,-0.274959832429886,-0.962966859340668
020_ff.jpg,-2.54083728790283,-1.56847143173218,0.849500477313995,0.259295225143433,0.76030033826828,0.728593409061432,-0.648723006248474,0.799441158771515,-0.738392233848572,3.2166953086853,-0.639322519302368,-0.682638943195343,-1.40525507926941,-0.579495072364807,-1.12761652469635,0.805225193500519,0.958818912506104,0.347104132175446,0.203171044588089,-0.67946457862854,0.984439134597778,-0.469877690076828,0.957144439220429,1.24828922748566,-1.94225823879242,0.936396718025208,-0.369386851787567,-0.731123387813568,0.861437261104584,-0.797235786914825,1.7301664352417,-0.450017035007477,1.8512282371521,-1.72205317020416,2.12103056907654,-0.905929028987885,-0.654545068740845,0.337027788162231,-0.0377060472965241,-0.115048050880432,-1.8043075799942,-0.247741162776947,1.24494802951813,0.756158411502838,0.581723213195801,-0.698143184185028,-0.0272509325295687,1.17163813114166,-0.056508295238018,0.0419277288019657,-0.578104376792908,0.732168972492218,-0.983234167098999,0.280444324016571,-0.290678083896637,0.492444545030594,0.502368748188019,-0.373137772083282,-2.30180883407593,-0.772366464138031,-0.999041497707367,-0.284331500530243,0.138628929853439,1.09750771522522,-1.85359621047974,1.62945330142975,0.642123341560364,3.06665706634522,2.67817616462708,0.777775883674622,-0.65882670879364,-0.736248373985291,-0.431541860103607,0.847113013267517,1.02326154708862,0.219383761286736,-0.983126759529114,-1.43654191493988,-1.4281553030014,0.0432596653699875,0.188079327344894,-1.14035677909851,-0.926321923732758,-0.123993687331676,0.385114908218384,0.296280592679977,-0.619915366172791,0.275276720523834,-1.61356842517853,1.29745388031006,-0.627068221569061,0.0861711800098419,1.56335580348969,1.71706974506378,-0.54272872209549,0.520735085010529,-1.32558751106262,2.38487768173218,-1.08802008628845,-0.893325865268707,-1.06892073154449,-0.379981815814972,-0.0620862692594528,-0.303024798631668,0.168092221021652,-1.95132911205292,-1.33698463439941,-0.789940476417542,-0.689765334129334,0.25099241733551,-0.606266975402832,1.32279300689697,0.112419165670872,0.822669327259064,-1.66079497337341,0.331510782241821,0.486869126558304,-1.69915330410004,-0.799232065677643,-0.136820048093796,0.0261316671967506,-1.63217425346375,-0.737404823303223,0.930012404918671,0.974653363227844,-1.55817937850952,0.79356974363327,1.63141262531281
021_ff.jpg,-1.41238582134247,-1.62293934822083,-1.51771020889282,0.266783177852631,-0.430132836103439,0.708395123481751,-0.732536256313324,-0.303642749786377,-0.374711483716965,1.44612836837769,-1.95824420452118,0.366708636283875,0.247706010937691,1.92224943637848,0.778618216514587,0.161860436201096,-0.233855992555618,-1.02872431278229,-0.299344837665558,-1.32782232761383,0.0970879197120667,-1.55647575855255,1.13260519504547,-0.715263783931732,-0.0505119524896145,-0.591708123683929,-0.345399647951126,0.410548955202103,0.215901792049408,-0.887787520885468,0.150655418634415,-2.34394884109497,1.24664735794067,-1.03165900707245,0.911175310611725,-0.0961934551596642,-1.13042485713959,1.61421775817871,-0.386127769947052,-0.794314503669739,-1.89405584335327,0.848293781280518,0.555895030498505,-0.570886015892029,-0.114297807216644,-1.4515528678894,-2.0539538860321,3.14768743515015,-0.377158284187317,-0.207493811845779,0.580452263355255,0.937705814838409,-0.363878220319748,-0.653012871742249,1.75938963890076,1.12865543365479,0.0294393263757229,1.40694940090179,1.94716835021973,-0.978544652462006,-0.740114629268646,1.72352755069733,-1.12252628803253,1.38436722755432,-0.894160509109497,0.0376014150679112,-2.31142330169678,0.91869330406189,-1.11170756816864,-0.542364835739136,-0.744131922721863,0.158400177955627,0.019456235691905,-1.06891810894012,-0.800054252147675,1.09424352645874,-0.273712664842606,-0.910467982292175,-0.687184393405914,-1.65802884101868,-1.38816344738007,0.927995443344116,-1.41333854198456,0.868074476718903,-0.179281324148178,-2.45532703399658,0.327149033546448,0.518984079360962,-0.496929615736008,-1.72827780246735,0.111880496144295,-0.288723468780518,1.28512299060822,1.36594974994659,-0.4452223777771,0.311779826879501,-0.146581918001175,0.589205622673035,0.250872075557709,0.415601521730423,1.2108565568924,-0.650025725364685,-0.360717922449112,0.51855194568634,0.270943820476532,-1.90930724143982,0.915664076805115,-1.42801213264465,1.55847299098969,0.00734626315534115,1.54816341400146,-0.934799373149872,-0.485426157712936,1.48996639251709,-1.01355218887329,0.542327880859375,1.89964950084686,1.70152878761292,-1.50122964382172,1.38019967079163,1.22601902484894,1.26691603660584,-0.115622609853745,-0.240117132663727,-0.0758362263441086,0.590757548809052,1.88021647930145,-1.24159526824951
022_ff.jpg,-0.415107190608978,-2.2287220954895,-0.616514623165131,1.70015823841095,0.820490062236786,-0.665540814399719,-0.0433046445250511,-0.967299997806549,0.0576826632022858,2.47521543502808,-2.02616453170776,-0.718116283416748,-0.387437701225281,-1.41358089447021,-1.15628921985626,0.410298824310303,2.02624988555908,1.05185616016388,0.0120507180690765,-1.63901722431183,1.40099394321442,0.606590151786804,0.787224411964417,-0.213523805141449,-0.851644396781921,0.315116405487061,-0.381712883710861,-0.558969140052795,0.404727816581726,0.688027620315552,0.666071057319641,-0.410735487937927,-0.160708829760551,-0.694581985473633,1.78861141204834,-0.385848432779312,0.2159064412117,1.26530027389526,1.89307618141174,-1.4489072561264,-0.547503530979157,1.04723238945007,-0.200689852237701,-1.0933849811554,1.47435057163239,0.928053557872772,-0.542486429214478,0.397579580545425,-1.06999337673187,1.75814425945282,-1.25480234622955,-0.0870710909366608,-1.85699617862701,0.035994216799736,0.699559926986694,1.69214200973511,0.525578856468201,-1.28535103797913,0.100985415279865,-1.42513942718506,-0.465698719024658,-1.69898498058319,0.918080985546112,-0.140431419014931,-1.04359579086304,0.863924205303192,-0.777257561683655,1.22441422939301,-1.78503835201263,-0.411450654268265,-0.162639200687408,0.631610035896301,-0.121036350727081,-1.77797257900238,2.78197288513184,-1.39534568786621,-1.65723848342896,-0.320538491010666,-1.34026706218719,-0.479214429855347,-1.26829266548157,-0.711584329605103,-0.65889585018158,0.0246787611395121,-1.17438852787018,1.0497407913208,-1.00591444969177,0.17856477200985,-1.3214156627655,-0.351654797792435,0.334519594907761,1.58966302871704,0.214224934577942,0.812455236911774,1.09618163108826,-1.97315800189972,0.773269414901733,0.341839343309402,-0.39270481467247,-0.500781059265137,0.567056000232697,2.09594178199768,-0.677746951580048,-1.73670732975006,0.852915704250336,-0.600654423236847,-0.647786855697632,-1.31096816062927,-0.577984273433685,-0.172836408019066,0.393105357885361,0.372386336326599,0.169843211770058,0.72032368183136,-0.639215528964996,-0.327661842107773,-0.254990756511688,0.593773365020752,-1.9756566286087,0.535898625850678,-0.701766908168793,-0.140768676996231,1.79365885257721,-1.24951219558716,-1.39425623416901,-0.0770311504602432,0.118658013641834,0.0183062069118023
023_ff.jpg,1.63283050060272,1.08907735347748,0.143567115068436,-0.604548335075378,-0.00884031318128109,0.524889290332794,1.07580900192261,0.441613793373108,-1.06459259986877,-0.0548856370151043,-0.0240678116679192,-2.42466378211975,0.520294725894928,-0.364930689334869,1.14971685409546,0.742320716381073,0.180517092347145,-1.13133716583252,0.924035847187042,-1.26173841953278,-0.977849960327148,-0.153301820158958,0.878458440303803,2.22701525688171,-1.36673986911774,-0.374081581830978,0.896247982978821,0.470384657382965,-1.09286224842072,1.73658883571625,-0.49737486243248,-1.52592957019806,0.914520025253296,1.46578431129456,1.78474724292755,-0.575680613517761,-0.195754259824753,0.903302311897278,1.96250867843628,2.85832524299622,-0.993647873401642,-1.83693194389343,0.529681921005249,-1.73997211456299,1.00800728797913,-0.385406166315079,0.122146427631378,1.70383417606354,0.982511460781097,-2.1720597743988,0.165795832872391,0.761607706546783,0.860726058483124,-0.525815486907959,0.0227822214365006,1.47449004650116,0.326978832483292,0.652634263038635,0.401673763990402,-0.112867295742035,-1.43888306617737,0.524508416652679,-0.641905426979065,0.182931989431381,-1.33141160011292,-0.615081012248993,-0.415181994438171,0.368652790784836,-0.573588192462921,0.0537687167525291,1.77570569515228,-1.24343872070313,1.3701753616333,-0.343428075313568,-0.71867311000824,1.50479185581207,-0.381668120622635,1.3091516494751,-0.826525509357452,-1.26663398742676,0.486063331365585,0.104917727410793,-0.533661067485809,-0.89184445142746,2.47221255302429,-0.387884914875031,0.752426326274872,-0.316029131412506,-0.464165270328522,-0.967078685760498,-0.263573110103607,1.8946179151535,0.979632258415222,0.631554663181305,0.143359750509262,-0.248733535408974,-1.10986959934235,-0.869062125682831,-1.99032878875732,1.25890505313873,0.120233729481697,-0.151376977562904,0.47868737578392,0.162742465734482,-1.82376670837402,-0.248397082090378,-0.0473022647202015,-0.757978558540344,-1.35325503349304,0.158907622098923,-0.245277762413025,0.0484767369925976,-1.68378102779388,-0.585220634937286,-1.45537126064301,0.270525991916657,0.585946321487427,0.0413199588656426,-0.151248306035995,1.01003670692444,0.145870000123978,0.81138288974762,0.33091014623642,-1.70759677886963,-0.220221444964409,1.30003607273102,0.881864666938782,-0.639266669750214
024_ff.jpg,-0.143469467759132,0.457015663385391,1.08085823059082,0.945717811584473,0.977241694927216,1.6881947517395,0.226147964596748,-0.522949814796448,1.14486503601074,0.48897460103035,-0.469502449035645,-1.74394154548645,-0.548592805862427,0.109171777963638,-0.274992197751999,-0.93077564239502,1.09356558322907,-0.454318642616272,-0.847851693630219,0.156578376889229,-0.206460133194923,1.27811765670776,0.598315060138702,-0.164054274559021,-1.2038449048996,-1.10397839546204,0.0536051914095879,-0.172945231199265,-1.57434558868408,0.0713733062148094,1.05545854568481,-1.93082177639008,-1.42275822162628,-0.9925297498703,1.18095147609711,0.665325284004211,-0.0633201077580452,-0.732835173606873,2.10414099693298,0.731038093566895,-1.45574545860291,-1.11912071704865,0.500468254089356,-0.311013579368591,1.65201842784882,1.02847754955292,-1.47736346721649,0.612778306007385,-0.609402179718018,1.83689761161804,-1.53079700469971,0.336614608764648,0.127778902649879,0.729922890663147,-1.13697552680969,-0.136190041899681,-0.000548992305994034,-0.779458105564117,-1.73147261142731,-2.49604868888855,-0.780414819717407,-0.0747622698545456,1.50518584251404,0.775528728961945,-1.70146799087524,0.570488214492798,-0.718074381351471,-0.933946013450623,-1.87995719909668,-0.573811650276184,-0.247582316398621,0.000818625092506409,2.06591582298279,-2.67148399353027,0.0179941970854998,-0.252403259277344,-0.751415967941284,0.311631768941879,-0.51915055513382,1.84816431999207,-0.368715077638626,-0.117763936519623,0.392355769872665,0.816242575645447,0.0790703147649765,0.000771671533584595,-0.20110921561718,-0.0566520392894745,0.192866072058678,-1.07779943943024,1.26397407054901,0.999281227588654,-1.08128595352173,1.3938547372818,0.850187957286835,0.153979942202568,-0.884822189807892,-0.387283474206924,-1.4319486618042,-0.635028064250946,1.32755851745605,2.3562331199646,0.0356209725141525,-0.231824710965157,-0.0866981148719788,-0.353894054889679,-0.403113275766373,-0.528930425643921,0.520196914672852,-1.6492862701416,0.862221956253052,-0.82452118396759,0.773883104324341,1.819500207901,-1.01170253753662,0.817249178886414,0.103763356804848,1.08408164978027,-1.47092854976654,0.0863437503576279,-1.83670616149902,-0.406301945447922,1.7654687166214,-2.17536640167236,-1.04784381389618,-0.648718655109406,1.26392018795013,-0.430103212594986
025_ff.jpg,2.06643319129944,0.0973690003156662,-1.63461899757385,2.17047023773193,1.42261433601379,1.77784907817841,0.818535447120667,-0.925298869609833,0.227784931659699,1.05470442771912,-1.641756772995,-1.18718862533569,-0.805299460887909,-0.906212568283081,0.883669495582581,-0.261846005916595,1.54197382926941,-0.347235202789307,0.265212774276733,-0.683755397796631,-1.08977496623993,0.850150585174561,0.347460985183716,-0.965579748153687,0.0287054497748613,-0.842432916164398,0.975170850753784,-0.774868369102478,-0.73806220293045,0.931014835834503,0.630469441413879,-1.21581983566284,-0.743505954742432,0.482837438583374,2.38108110427856,-0.287783801555634,-1.84450709819794,-0.397217839956284,0.278664618730545,-0.506340503692627,-1.14279508590698,-0.28607240319252,1.10401403903961,1.52960109710693,2.57578730583191,-2.14777398109436,-0.703845262527466,1.21204817295074,1.01037776470184,0.918969392776489,-0.321539282798767,-1.24923384189606,-0.124516434967518,0.939606547355652,0.0854392796754837,0.195056304335594,0.242564246058464,-1.15909790992737,-1.58904588222504,-0.692307770252228,-2.0678448677063,-0.625693321228027,2.1694278717041,-0.680318355560303,-1.12804925441742,0.0816136375069618,-1.93252825737,-0.950184524059296,-1.90620112419128,0.613618135452271,1.2054215669632,-0.746662378311157,-0.79002058506012,-0.553252577781677,0.214890256524086,-0.963464677333832,-0.500838756561279,-0.0661522299051285,0.562569677829742,0.958170294761658,1.13108110427856,0.927537679672241,1.14816665649414,0.611801743507385,1.08819913864136,-1.71759676933289,0.424654304981232,-1.79304087162018,0.594778180122376,-2.14771485328674,-1.31497645378113,0.999078810214996,-1.82776582241058,0.980613589286804,-0.529614329338074,-1.052774310112,-2.19564247131348,-1.0965416431427,-1.32224011421204,1.05843985080719,0.471056640148163,-0.0411432012915611,-1.25534725189209,1.46557652950287,0.526794075965881,-0.322093427181244,-0.542602062225342,-1.29384136199951,-1.02512454986572,-1.21896147727966,0.697834968566895,-0.0414335057139397,-0.551344275474548,1.67201721668243,-1.2098114490509,-1.10450780391693,0.113348126411438,0.20278525352478,-0.681497693061829,-0.252846658229828,2.14211750030518,-0.752905249595642,1.4604629278183,0.119177177548409,-1.51316070556641,0.83013916015625,0.189344748854637,-0.945045471191406
026_ff.jpg,-0.336397081613541,-0.610192656517029,-0.620959460735321,0.378438353538513,1.13547551631928,-0.116011671721935,-1.53003978729248,0.0595048666000366,-0.219490200281143,2.10601568222046,-0.566398739814758,-0.289176404476166,-0.924836099147797,-0.444590479135513,1.02003741264343,-0.082059383392334,1.54479706287384,1.52777493000031,-0.583988070487976,-1.78148651123047,0.530662417411804,-0.708926737308502,2.01408123970032,1.17991423606873,-0.996306598186493,-1.11313414573669,-1.34279978275299,0.311743080615997,0.190751180052757,1.93111371994019,1.37800908088684,0.0856095924973488,-0.484624952077866,0.500139117240906,2.70228862762451,-0.949004054069519,-0.838717401027679,-0.613804578781128,-0.158111423254013,-0.368070542812347,-1.53859221935272,-0.200520679354668,2.65558242797852,0.214614987373352,3.04521727561951,0.341398179531097,0.320132613182068,-0.603463292121887,0.284334659576416,1.004922747612,-0.685027062892914,-1.65420782566071,-0.305784851312637,-0.227492451667786,-1.13321566581726,0.412847489118576,-0.264693915843964,-1.66866886615753,-0.89427250623703,-1.38898134231567,-0.828668355941773,1.41030955314636,0.759046792984009,0.0482605434954166,-1.64518666267395,0.166096284985542,-0.762188196182251,1.38430106639862,0.709978580474854,-0.456247806549072,0.759065270423889,0.438069254159927,-0.297009110450745,-0.170704066753387,0.452178984880447,-0.839953064918518,0.0359827876091003,-2.09117007255554,-1.14490473270416,-1.19492638111115,1.06331050395966,0.0868580788373947,-1.54938745498657,0.0168956946581602,0.484046399593353,-1.44836461544037,-0.333281964063644,-0.417184293270111,-1.6298896074295,-0.274154305458069,-0.660889983177185,1.55818128585815,-1.0430383682251,1.93649244308472,0.356110513210297,-0.454862177371979,-0.139183089137077,1.71493887901306,-1.51636266708374,0.11183949559927,0.163870170712471,-0.789388000965118,0.0710681974887848,-1.32115018367767,-0.311750888824463,-0.104571841657162,-1.34301352500916,-1.46674740314484,-1.48564684391022,-0.00140712410211563,0.371550589799881,0.95702075958252,-0.79785680770874,0.154867053031921,-0.253794461488724,0.0841052681207657,1.16018712520599,-1.39336335659027,-1.87304127216339,0.869968473911285,0.0747390240430832,-0.733135104179382,1.98239779472351,-0.136101216077805,-0.371101081371307,-1.44371426105499,-0.0326242446899414,-0.254816681146622
027_ff.jpg,-0.0795637518167496,-0.569218218326569,-1.9967280626297,-0.274434924125671,0.169934391975403,0.121636427938938,-2.43122887611389,-0.000638477504253388,-0.150629550218582,2.30715084075928,-1.18678247928619,-0.656695127487183,-2.4368531703949,-0.955836415290833,0.694389462471008,0.967251598834992,2.24516367912293,0.305460035800934,-0.173008948564529,-1.20433938503265,2.16125655174255,-0.194001451134682,1.40560734272003,1.48125779628754,-0.0873091667890549,-0.557022213935852,-1.35941624641418,0.297147512435913,0.154653459787369,1.3681606054306,0.0239929854869843,0.287232398986816,-0.299786269664764,0.579089403152466,3.08283114433289,1.33512914180756,-1.40103590488434,-0.0182617083191872,0.438327938318253,-0.65936267375946,-2.13844919204712,0.166847109794617,0.120950624346733,-0.655236005783081,1.37869298458099,0.240369975566864,0.568155288696289,-0.737784147262573,-1.02676427364349,0.821207523345947,-0.656145751476288,-1.02296626567841,0.28385266661644,-1.85818266868591,0.811425864696503,0.853008985519409,-0.576112687587738,-1.01264894008636,0.510163247585297,-0.993116497993469,-0.838465809822083,-0.395486891269684,0.81012761592865,-1.09125506877899,-0.537245869636536,-0.287700831890106,0.117172561585903,1.27038204669952,1.04621124267578,-0.755168080329895,1.69132840633392,-0.438750952482224,-1.04353666305542,-0.56061178445816,1.29890894889832,0.0362388342618942,-0.33089217543602,-1.34899878501892,-0.660119771957398,-1.3914932012558,1.17158424854279,-0.411040604114532,-1.27412080764771,0.99414336681366,0.333957493305206,-0.055260643362999,-0.892504036426544,-0.544463276863098,-1.06949770450592,-0.0783253610134125,0.505166709423065,0.867284119129181,-0.996937394142151,2.29815578460693,-0.587117910385132,-0.0809303224086762,-0.576166570186615,0.695264577865601,-1.22011804580688,1.85475754737854,-0.385385751724243,-0.326604336500168,-0.807469427585602,-1.66534948348999,-1.00137853622437,-2.85468459129334,-0.843655049800873,-0.510029673576355,-0.831303775310516,0.592317759990692,0.183043912053108,0.265036314725876,0.39092281460762,0.98582249879837,0.153826653957367,-1.24866843223572,1.42037665843964,-0.378586351871491,-1.1944545507431,1.66172194480896,1.29255366325378,-0.723762035369873,0.311947524547577,-1.35825860500336,-0.770883917808533,-0.306438714265823,0.889912784099579,-1.51514649391174
028_ff.jpg,1.31661248207092,-0.554902195930481,0.0179703570902348,1.79948592185974,-0.609048128128052,0.471388429403305,2.33975410461426,0.846594870090485,0.603355526924133,0.0153548866510391,-0.105627462267876,-2.68828010559082,0.0326060354709625,-1.17742586135864,-1.99009656906128,-0.554296433925629,-0.425229668617249,0.239975735545158,-0.51437783241272,-0.008109618909657,0.860700130462647,1.42534697055817,0.305243462324142,-1.28281879425049,-0.417064338922501,-1.22810471057892,-0.484589070081711,-0.128626391291618,1.05006241798401,-0.10533832013607,-0.543988943099976,1.03627753257751,-0.0866178646683693,-1.97261083126068,1.36354720592499,-1.60387468338013,-1.73448491096497,2.38928389549255,0.207955583930016,0.845365166664124,-0.228624165058136,1.57447028160095,1.25891363620758,-1.46452713012695,1.69250011444092,0.387754648923874,0.195387467741966,1.61606192588806,-0.805146872997284,1.39602959156036,-2.34791398048401,1.26143980026245,0.0156691484153271,1.76253366470337,-1.1785808801651,1.23140060901642,0.133482784032822,1.05959916114807,-1.18353843688965,-0.583943486213684,-0.448609262704849,0.191639587283134,-0.208254769444466,0.670616805553436,-0.512594223022461,0.767372310161591,0.889770150184631,1.93341195583344,-0.300895869731903,-1.85495150089264,-2.20739984512329,0.200356900691986,-0.816605269908905,-1.10453915596008,-1.52218019962311,-0.791651248931885,-2.1873140335083,-0.763401985168457,-1.10778439044952,-0.333048731088638,2.62452507019043,-1.05025196075439,0.59693169593811,-1.52670478820801,-0.221613645553589,-1.54527497291565,0.771953225135803,-0.426633596420288,-0.646091341972351,-0.869956076145172,-0.0954753831028938,1.39709377288818,0.598076164722443,0.667248904705048,-0.630918383598328,0.105570994317532,-1.79091763496399,-1.31707310676575,0.211110204458237,-0.121536523103714,-0.595985591411591,0.640334904193878,-0.0548600256443024,-0.227548226714134,0.209261655807495,0.108268365263939,0.0825696736574173,-0.301805108785629,0.0786547213792801,-0.465900003910065,1.55188488960266,-1.27556610107422,-0.406933814287186,2.15554594993591,-2.76908254623413,0.254425585269928,-0.910725593566895,0.0188727825880051,-0.832691967487335,0.326016783714294,-0.797347605228424,1.75288093090057,-0.629664778709412,0.194874957203865,0.119561359286308,1.4423862695694,-0.938497543334961,-0.654670119285584
029_ff.jpg,0.577017426490784,-1.01657676696777,-0.506643652915955,0.984552145004273,0.464532881975174,0.915911138057709,-0.913331687450409,0.486932754516602,0.562670171260834,1.73841071128845,-1.17138195037842,-1.94409704208374,-0.416562259197235,0.609771728515625,0.0840420573949814,0.679570615291596,0.930775165557861,0.490410804748535,0.283162593841553,0.119300380349159,-0.955118060112,1.22452139854431,1.48490118980408,1.01316261291504,-0.728224098682404,0.45184862613678,-0.575210213661194,-1.04492676258087,-0.459010362625122,1.25220954418182,0.560078620910645,-1.08832406997681,-1.50549125671387,0.887378036975861,1.5086190700531,0.435836613178253,0.278324067592621,0.922177910804749,2.99152135848999,0.339679092168808,-0.502827048301697,-0.6442511677742,2.76439237594605,-0.467067033052444,1.11197030544281,0.375603914260864,-0.797569096088409,0.0714686587452889,-1.07317495346069,2.10074710845947,-0.572411239147186,0.463872343301773,0.040610034018755,0.899958670139313,-1.61836326122284,-0.647300601005554,0.0321110524237156,-0.538290917873383,-1.47641742229462,-1.22192788124084,-0.80879282951355,-0.95276689529419,0.700722992420197,0.71405291557312,-0.754237055778503,-0.696746647357941,-0.542858600616455,-1.21684777736664,-1.82371389865875,-0.250015288591385,1.83911311626434,-0.337450563907623,1.07206928730011,-0.261532098054886,1.29673647880554,-0.959075033664703,-0.521396160125732,-0.43746218085289,-0.405892908573151,0.362533807754517,0.714911460876465,-0.282972812652588,0.862759590148926,1.20257341861725,-0.326183944940567,-0.505957901477814,-0.296388119459152,-0.18055634200573,-1.20907497406006,-1.39134740829468,-0.347929954528809,0.567492067813873,-1.45412397384644,1.39390671253204,0.0603904314339161,-0.506652116775513,-1.25844705104828,0.421510934829712,-2.77886152267456,-1.33233368396759,0.705699801445007,0.447113752365112,-1.11373031139374,-0.199419632554054,-1.40068399906158,-0.260805666446686,-0.718449056148529,-2.02888131141663,-0.810771048069,-0.533844411373138,1.66955482959747,0.517132222652435,1.25028836727142,0.964237749576569,0.195015028119087,-1.98270523548126,0.369368106126785,-0.740043759346008,-1.60632371902466,0.0150279030203819,-0.338626801967621,-1.9312481880188,1.68984436988831,-0.946427822113037,-2.46266794204712,-0.115745700895786,1.70028531551361,0.105621367692947
030_ff.jpg,0.438722133636475,-0.849286437034607,-0.392996937036514,0.535969734191895,1.02747011184692,-0.601589560508728,-0.767987847328186,-0.981908619403839,-0.792341768741608,1.82321500778198,-0.367782443761826,-1.25616002082825,-0.66741931438446,-1.55536913871765,1.09080219268799,1.82273876667023,1.92935967445374,0.435649216175079,-0.566938519477844,-0.614189505577087,0.970789551734924,1.09149992465973,1.24437713623047,-0.0690513625741005,-0.860807836055756,1.24338436126709,-0.457421839237213,0.283553808927536,0.666859984397888,1.73583841323853,0.62552285194397,0.0247208252549171,0.318136662244797,-0.673720240592957,2.26606297492981,0.912582933902741,0.375593930482864,0.307910799980164,1.73097610473633,-0.285493701696396,-0.837231278419495,1.48322379589081,0.59494936466217,-1.34246718883514,1.43769490718842,1.09249174594879,-0.883410751819611,-0.1319450289011,-0.896782457828522,1.5068519115448,0.718212902545929,-0.358721643686295,-0.585687398910523,-0.546358942985535,0.413659393787384,0.959868431091309,1.1596941947937,-0.936441659927368,-0.277386128902435,-1.16253066062927,0.319350838661194,-1.11261856555939,0.508275806903839,1.12614142894745,-0.754891872406006,-0.237232968211174,0.649620056152344,0.740157842636108,-0.597717225551605,0.0672834664583206,0.509120285511017,0.832136988639832,-0.540156245231628,-1.36120104789734,2.7840723991394,0.217288061976433,-1.24395632743835,-0.10828772187233,-1.84200191497803,-0.675432980060577,-1.46643352508545,1.00501489639282,-0.972635328769684,0.511031687259674,-0.0626853927969933,-0.817483246326447,-0.883790910243988,-0.139250665903091,-1.67672896385193,-1.6561371088028,-0.350930094718933,2.09338569641113,0.738379955291748,1.92361629009247,0.609837412834168,-2.12139892578125,0.0672946125268936,0.542413353919983,-2.02579092979431,-1.19309604167938,1.24488937854767,-0.0428324639797211,-1.98677122592926,-1.90697503089905,0.157956928014755,-0.734439194202423,-1.31387746334076,-1.33899509906769,-0.143911689519882,1.41621613502502,-0.418656766414642,1.29112005233765,0.661906242370606,0.618032395839691,0.244739577174187,0.210751444101334,0.0699719414114952,-0.936417937278748,-1.78166151046753,1.17950344085693,0.739553928375244,-0.946641564369202,2.43934941291809,-1.94487166404724,0.0300068557262421,-1.65834224224091,0.0913040041923523,0.0334646739065647
031_ff.jpg,0.0527284145355225,-1.7345095872879,1.03860211372375,0.398226410150528,1.67795133590698,1.01241290569305,0.0737757384777069,-0.73664915561676,-0.227958589792252,-0.862497389316559,-1.5631468296051,-0.846155107021332,-1.40350770950317,-0.287684261798859,-0.721076965332031,-1.8106997013092,1.74673390388489,1.05783069133759,-0.408289730548859,-1.45901310443878,-0.804131865501404,1.1621253490448,-0.53593122959137,-2.05521631240845,0.0227860752493143,-0.386082142591476,-0.43014520406723,-0.177333563566208,0.921524405479431,2.57698583602905,1.35278415679932,0.806032359600067,0.220681309700012,-0.400537967681885,0.0393764302134514,1.18898355960846,-0.617960631847382,0.0178055465221405,-0.724134504795075,-0.546880006790161,0.853328883647919,-0.0690535977482796,0.472960531711578,1.37927687168121,3.19184446334839,0.524775862693787,0.6613689661026,-0.541531801223755,-1.43406331539154,0.384323567152023,-0.890877068042755,0.0585108324885368,0.324320197105408,-1.41796600818634,-1.13314700126648,-0.0276069212704897,-0.487058728933334,-0.648023545742035,-0.0249863117933273,-1.67959308624268,-0.572120070457459,-1.38288998603821,-0.251840710639954,0.700505971908569,-0.785400152206421,0.695953190326691,0.0529094412922859,1.07263731956482,0.0584870800375938,-1.92791318893433,0.376372277736664,-1.35136651992798,-1.68796861171722,-2.0485315322876,1.3408727645874,0.825323939323425,-0.623482465744019,-0.848639369010925,-0.403944790363312,1.19672453403473,0.813161432743073,1.54278898239136,-1.06217455863953,0.566821217536926,0.125399678945541,-0.191995561122894,0.331158041954041,0.463413774967194,-1.41210436820984,0.228694662451744,-1.24020612239838,1.86805808544159,-1.18313384056091,-0.119839198887348,-0.224751114845276,-0.683022379875183,-1.11787736415863,-1.49524688720703,-0.510604679584503,1.44273281097412,0.0766787901520729,0.727147519588471,-1.05814146995544,-2.21708559989929,-2.64622712135315,1.2238883972168,-1.34565770626068,-2.04465961456299,0.263039648532867,-1.22381007671356,-2.08594918251038,1.49747264385223,-0.312429875135422,-0.173274695873261,1.37760734558105,0.378563761711121,-0.902787089347839,-0.732935845851898,-1.11765837669373,0.803951144218445,0.311051964759827,0.308900356292725,2.0568060874939,-0.368090331554413,0.679208695888519,-0.477480083703995,1.05133366584778,1.47517740726471
032_ff.jpg,0.385179698467255,-1.60812890529633,1.2380758523941,1.7831357717514,1.0666561126709,-1.53855693340302,0.398499727249146,-1.4016181230545,0.197216123342514,1.31958758831024,0.0544516369700432,-1.46924650669098,0.479226469993591,-0.587247729301453,-0.132959872484207,-0.0451485551893711,2.64426612854004,0.365395247936249,-0.671981453895569,0.138404726982117,0.463863521814346,-0.715464651584625,1.53947865962982,2.60221362113953,-0.597078323364258,-0.738717496395111,-1.75888800621033,-0.165444508194923,0.669325470924377,-0.44804573059082,1.09195673465729,-2.2779438495636,-1.474818110466,1.08164083957672,1.91995453834534,1.23402309417725,-1.36499786376953,1.5398576259613,0.449880570173264,1.54991447925568,-1.25874996185303,0.845746338367462,2.92697215080261,1.16766905784607,-0.545365452766419,0.496032118797302,0.561141908168793,1.17230916023254,-0.930361390113831,0.216991424560547,-1.01837956905365,-1.18675661087036,-1.64290618896484,1.16761267185211,-0.643813610076904,0.59121036529541,1.10630738735199,0.555465996265411,-2.15702676773071,0.665521919727325,-1.21687746047974,-0.449984192848206,-0.111153244972229,-0.554392337799072,-0.84283846616745,1.66672599315643,-0.496753096580505,1.09456932544708,0.06446373462677,2.03051447868347,0.927902579307556,0.667756319046021,0.511156439781189,-0.160858869552612,-0.535654485225678,-0.0483840815722942,-0.0719103366136551,-1.85697865486145,-1.69439613819122,0.327878534793854,0.838451981544495,-1.6981440782547,1.42298471927643,-0.00261528789997101,-0.596280753612518,0.372600913047791,0.524738430976868,-1.46969330310822,0.21808797121048,-0.350630253553391,1.83417022228241,1.09829413890839,-0.154535636305809,0.968949139118195,-0.370599508285522,0.299672216176987,-1.11705601215363,0.537877798080444,-1.71731996536255,-0.793892443180084,0.592144012451172,0.601215124130249,-0.896368741989136,-0.442482471466064,0.919626891613007,-1.22473049163818,-0.0826907306909561,-2.95001792907715,0.153608188033104,-1.79729807376862,0.577133595943451,0.561845302581787,0.929648756980896,0.779691159725189,-0.903536558151245,-2.05266833305359,-0.0144502138718963,0.0794934257864952,0.394609034061432,-0.204794958233833,-0.209353730082512,-0.741889357566834,0.530775487422943,-2.30898857116699,-0.551167190074921,0.0883293077349663,1.37432456016541,-0.885150909423828
033_ff.jpg,-0.510923027992249,-1.33402609825134,-0.263829410076141,-0.585423707962036,-0.0591436624526978,1.40800583362579,-1.29660332202911,1.47725093364716,0.128231525421143,1.81330907344818,-0.610849618911743,-1.27025675773621,-0.615750312805176,-0.584330558776856,0.360358208417892,0.307748675346375,1.94309544563293,0.155732810497284,0.452092111110687,-1.41591477394104,-0.0429717227816582,-0.632100760936737,1.76012861728668,1.76429045200348,-0.612404704093933,-0.850613176822662,-1.40498054027557,0.394969195127487,-0.39139312505722,1.3238240480423,0.6694256067276,-0.994509518146515,-1.11380362510681,0.283184915781021,2.0631742477417,-0.471090286970139,0.0924353152513504,1.19723689556122,1.74735879898071,0.760344982147217,-1.81825983524323,-0.911587834358215,1.85211157798767,-0.333629131317139,1.11866331100464,0.295286774635315,1.07963180541992,-0.538249492645264,-0.0686022043228149,0.549584031105042,-1.31932425498962,0.959179639816284,-0.399756044149399,0.268621385097504,-1.73257982730865,0.97078400850296,-0.295409470796585,-1.35440230369568,-0.463959246873856,0.736690402030945,-0.451130032539368,-0.03147092461586,1.80761063098907,-0.124612718820572,0.248731106519699,-0.688154935836792,-0.122092671692371,1.78134608268738,-0.106110610067844,-0.912214994430542,0.0689980760216713,0.492000967264175,-0.218740165233612,-0.820324122905731,1.39411354064941,0.341584712266922,-1.62996017932892,-1.59498000144959,-1.4795548915863,-0.514502048492432,1.32505059242249,-0.158368572592735,-0.74242776632309,0.388358652591705,-0.679411709308624,-0.669526100158691,-0.921063721179962,-0.268746316432953,-2.16004371643066,0.590323567390442,0.711569666862488,-0.508492827415466,-0.868019342422485,0.630652725696564,-0.776544690132141,1.55946886539459,-1.51175045967102,0.945691704750061,-0.298054695129395,0.912352561950684,0.437556684017181,-0.380824863910675,0.250130355358124,-0.541834115982056,-1.65412485599518,-0.586467862129211,-2.88595271110535,-0.979021906852722,-0.355571866035461,-1.46252501010895,0.520035445690155,-0.3708216547966,0.364654898643494,-0.16778127849102,0.556975066661835,-2.12438154220581,0.576874852180481,-0.309283077716827,-0.72180312871933,0.921703100204468,0.473498404026032,-1.83896207809448,0.422321259975433,-0.0385285094380379,-1.88811123371124,-0.320650398731232,0.725812375545502,-1.17618334293365
034_ff.jpg,-0.577051281929016,0.487952917814255,-0.0961737260222435,1.15443468093872,2.83766937255859,-0.721874296665192,1.29475224018097,-1.42314612865448,-0.26646101474762,2.67890214920044,0.321695774793625,-1.62033224105835,-0.0713242143392563,-1.72068011760712,1.0421097278595,0.995728671550751,1.23501515388489,0.257877230644226,-1.17713212966919,-0.0185096599161625,-0.217536985874176,1.1512565612793,0.271924793720245,2.01265954971313,-1.20107460021973,1.50264716148376,0.039703655987978,0.0450575724244118,0.527851641178131,0.350674629211426,2.93317842483521,-1.69966125488281,0.460127413272858,-0.735053181648254,2.80546069145203,-0.213727235794067,-1.38836216926575,-0.306748598814011,1.49092531204224,0.803926229476929,-1.87667155265808,-0.581022143363953,1.64753067493439,0.293576210737228,2.40946841239929,-0.116352587938309,-1.08697116374969,1.06295084953308,0.0696565359830856,0.472480118274689,-0.372400403022766,0.710986018180847,-1.32635807991028,0.625702500343323,-1.04832553863525,0.509228050708771,1.38478243350983,-1.14174401760101,-2.34187841415405,-1.73885989189148,-1.12703394889832,-0.398788630962372,1.04034769535065,-0.29120734333992,-2.51512622833252,0.662695586681366,-0.317851096391678,0.208615303039551,1.26522827148438,-0.294312685728073,0.382207483053207,-1.39765179157257,-0.107951775193214,-0.704941987991333,-0.154367297887802,-0.814234137535095,-0.82869029045105,-1.64493596553803,-1.12278735637665,0.229751870036125,0.93880158662796,0.207912012934685,-0.00358788669109345,0.377487361431122,0.682683765888214,0.63198184967041,-0.484516859054565,1.01723301410675,0.210599094629288,0.114892706274986,-1.25379848480225,1.59031414985657,2.02159857749939,2.92360091209412,0.45373472571373,-0.957400858402252,-1.14439177513123,0.553147673606873,-2.01651811599731,-0.421420395374298,0.376902759075165,0.40717151761055,-0.35246267914772,-0.701930403709412,-0.0300896987318993,-0.604090988636017,-1.13007616996765,-0.387226432561874,-0.990023970603943,-0.135701090097427,-0.383626818656921,1.79620349407196,0.267488241195679,0.554050922393799,-0.23769736289978,0.630515456199646,0.151749089360237,-1.18676340579987,-0.447113901376724,-0.0129536613821983,0.0642159208655357,0.107215493917465,1.16805136203766,-1.64604651927948,0.0214925594627857,-0.596686065196991,0.832203686237335,-0.222126439213753
035_ff.jpg,0.191486537456512,0.48327311873436,-0.62684553861618,0.949284791946411,2.59835124015808,1.10946786403656,0.656151652336121,0.515535891056061,0.171990960836411,1.06002295017242,-0.93511164188385,-0.47352209687233,-0.843580365180969,-0.689265727996826,-0.133416295051575,0.468507647514343,2.19532871246338,-0.535805881023407,-0.459767639636993,0.0737414658069611,0.363707602024078,0.740969181060791,-0.877845764160156,-0.524316012859345,-1.70067286491394,-1.17974185943604,-0.544778823852539,-0.0944464951753616,-1.45244586467743,0.159731686115265,1.1066757440567,-0.706180393695831,-2.22506809234619,-1.47726690769196,1.8640114068985,-1.5625057220459,0.436965495347977,-0.743705451488495,0.917883455753326,-0.378819912672043,-1.90640509128571,-0.52692186832428,1.16751432418823,0.607301533222199,0.19569243490696,-0.984570741653442,0.499470740556717,-0.74915337562561,-0.248040720820427,2.3500542640686,-2.94854545593262,1.22607350349426,-0.0259140506386757,0.0572666302323341,-0.478414922952652,-0.0183253232389689,-0.128680378198624,-0.915517210960388,-1.47730815410614,0.126607984304428,-1.74604821205139,-0.506015300750732,3.1987521648407,1.16077947616577,-1.65861868858337,0.912653803825378,-0.0876589193940163,1.20863783359528,0.562200784683228,0.560094952583313,1.03250992298126,0.200504630804062,-1.18165564537048,-0.1736860871315,0.492684841156006,0.354851990938187,-0.849150061607361,-0.764144241809845,-0.987988293170929,0.24093933403492,0.516901671886444,-0.434256285429001,-0.0804954767227173,0.523539185523987,0.834799468517304,-0.982419192790985,-1.06770157814026,-2.56106019020081,-1.43623113632202,-0.750248432159424,-0.506425976753235,-1.9169408082962,-1.5266033411026,0.248839557170868,-0.758973360061646,-0.31542894244194,-2.00380396842957,0.59802520275116,-0.154271140694618,0.305547088384628,-0.34245502948761,1.98253607749939,-0.486456751823425,-0.487455904483795,-0.210736900568008,-0.997440695762634,-1.27332937717438,-1.60756695270538,-1.67233371734619,-0.278155744075775,0.68121200799942,1.44522523880005,1.79489827156067,1.14272892475128,-1.44811975955963,-0.653412222862244,-0.514375686645508,0.19105339050293,-2.57370829582214,0.938722968101502,1.19558262825012,-1.0475047826767,1.35834622383118,-0.781376123428345,-2.35922026634216,-0.395224660634995,0.16731059551239,-0.480975151062012
036_ff.jpg,0.248162806034088,-0.472214162349701,-1.06409525871277,0.48748990893364,-0.359340310096741,0.264213383197784,-0.742206037044525,0.192621052265167,-0.0735447630286217,1.90156769752502,0.807734072208405,-0.462640285491943,-2.00274586677551,-0.619606971740723,-0.50561261177063,0.747515559196472,0.902422428131104,1.46807634830475,-1.54586088657379,-1.6499205827713,0.569650173187256,-0.353060573339462,1.54570615291595,0.430105179548264,1.28871130943298,0.361003041267395,-1.34348201751709,-0.756166160106659,0.157473489642143,1.22905480861664,1.25042033195496,0.545727968215942,0.116768456995487,1.68646156787872,2.51218056678772,-0.269968748092651,0.744917690753937,0.536368906497955,0.484355539083481,0.927932620048523,-0.598563611507416,0.760317325592041,1.86015188694,0.811144530773163,0.600489974021912,-0.427515089511871,0.120596125721931,-0.130085587501526,0.102275609970093,1.04966711997986,0.611717641353607,-2.07054209709168,0.677537739276886,-0.240050494670868,0.906893670558929,0.778498589992523,0.227798774838448,-2.37968683242798,1.56474244594574,-1.1776111125946,-0.232880383729935,0.0737830400466919,-0.432586371898651,-1.90790355205536,0.586400151252747,-0.264770567417145,-2.38335585594177,2.78827333450317,-1.70539128780365,-0.757432818412781,-0.782849013805389,0.555552482604981,-0.134425580501556,-1.82993996143341,1.49405443668365,0.00616761669516563,0.339041709899902,-0.456587910652161,-1.02307689189911,-0.638769030570984,0.25324758887291,-0.545031666755676,-2.3435971736908,0.0642122551798821,0.365431785583496,-0.197873264551163,-2.03830671310425,0.929538011550903,0.144918411970139,1.45645940303803,-0.148603737354279,1.00676786899567,-0.928860604763031,-0.0606274530291557,0.206488400697708,-0.33842009305954,0.980430841445923,0.0993642061948776,-0.389383614063263,-0.516023576259613,1.34509122371674,-1.83120846748352,-1.75888621807098,-2.00058913230896,-0.619384706020355,-0.119014210999012,-0.74556839466095,-0.887138962745667,-0.381066173315048,0.338751912117004,1.4782395362854,0.548403143882752,0.47262117266655,-1.01935303211212,0.889033794403076,-1.12656271457672,0.0206534564495087,-1.75709939002991,1.11807882785797,0.866151511669159,0.910312235355377,-2.71781134605408,0.822469770908356,-0.0531076341867447,-0.229399904608727,-1.23050308227539,0.576361417770386,0.424659550189972
037_ff.jpg,-0.824705004692078,0.481232076883316,-1.3998875617981,1.5886561870575,1.08834946155548,-1.40111875534058,1.27028489112854,-0.698958277702332,-1.29429757595062,3.03986120223999,-0.142834186553955,-1.27622997760773,-0.266022622585297,-1.49872958660126,0.115525916218758,2.84572458267212,1.73278200626373,-0.10565908998251,-0.749172866344452,0.624063670635223,1.07048380374908,1.75946652889252,1.305011510849,0.681144952774048,0.237586259841919,2.23780393600464,1.5260591506958,-0.105911880731583,0.94302624464035,0.390657812356949,0.244635432958603,0.326727509498596,2.0325448513031,-0.87379401922226,2.20773720741272,0.375708758831024,0.676280498504639,-0.0962615683674812,-1.0287754535675,-0.129338219761848,-1.82196664810181,1.37151324748993,0.922753691673279,0.62374758720398,1.36571443080902,0.239813506603241,-0.559492409229279,1.05146741867065,-0.439210951328278,1.73020339012146,0.048415869474411,0.576259136199951,-1.8066269159317,1.46510970592499,-0.749543607234955,1.1914838552475,-0.726768553256989,0.397267907857895,-0.356355398893356,-1.06133627891541,-0.408605366945267,0.0801706314086914,-0.0109228063374758,0.737262785434723,-0.534762263298035,0.453760802745819,-0.598511874675751,2.66452598571777,1.61825215816498,0.498213142156601,-0.0757745504379273,-0.381071358919144,0.271034777164459,-0.18722465634346,1.01424849033356,-0.985114514827728,0.864588022232056,-1.23778653144836,-1.09614956378937,-0.939833343029022,-1.16108226776123,0.872052788734436,-0.740076065063477,1.13900291919708,0.474885791540146,0.566584229469299,0.360806256532669,-1.17488694190979,-0.635662436485291,-0.711621701717377,-1.3601348400116,1.60647749900818,3.01130223274231,0.898393034934998,-0.497272968292236,-1.23320209980011,0.338949412107468,0.284711688756943,-2.18332672119141,-0.122558757662773,-0.384040117263794,1.00149238109589,-0.565842509269714,-0.806492686271668,-0.377407521009445,-1.74979782104492,-0.787264764308929,-0.195228666067123,-0.353417217731476,1.39073801040649,-0.528516888618469,0.708413243293762,1.61261212825775,2.25984740257263,-0.388479381799698,0.731658577919006,-0.083277054131031,-0.986384034156799,-0.2714022397995,0.582767426967621,1.92881608009338,-0.312271326780319,0.307328581809998,-0.600699841976166,0.463190257549286,-0.815339505672455,1.8142112493515,1.65902280807495
038_ff.jpg,1.07407021522522,-0.315223693847656,0.0778582766652107,1.25891435146332,2.38311958312988,0.385036170482636,1.96409034729004,-0.84482878446579,0.486059576272965,1.56199288368225,0.104011870920658,-3.075608253479,-0.0751219391822815,0.358141988515854,-0.405114978551865,-0.820880651473999,1.63424360752106,-0.217854157090187,-0.214551270008087,-0.239134788513184,0.57192873954773,1.19374704360962,0.542039513587952,1.18565213680267,0.840952575206757,-0.372052669525147,0.0223428197205067,-1.07544720172882,0.397272884845734,-0.467641144990921,1.36407673358917,-0.808567225933075,0.239440843462944,0.00413129478693008,1.57132804393768,0.207290560007095,-0.929252147674561,0.986621737480164,0.481232464313507,0.112005136907101,-1.6288765668869,0.684713900089264,1.39402413368225,-0.0672441348433495,-0.259679943323135,-0.196282982826233,-2.79819488525391,2.0925931930542,1.0712662935257,0.81364643573761,0.117362380027771,-0.372896552085876,-0.475382596254349,0.803749263286591,-0.614268302917481,0.225388795137405,0.860515296459198,-1.98012363910675,-2.29379463195801,-1.64598023891449,-2.73356056213379,0.532516241073608,0.593979120254517,0.607137143611908,-1.33407914638519,1.14491093158722,-0.599157094955444,0.332281649112701,0.461550414562225,1.83731997013092,0.382087141275406,0.422930032014847,-0.0199595615267754,-1.44206202030182,-1.79423570632935,-1.07174038887024,-0.0430985316634178,-1.85766315460205,-1.62995231151581,1.76377654075623,0.271682053804398,0.761968374252319,0.897424519062042,0.421221315860748,1.26844477653503,1.18760776519775,0.404817372560501,-1.00822925567627,0.513263463973999,0.163038402795792,1.67257118225098,2.91112589836121,-0.025537820532918,3.04229497909546,-0.209968358278275,-0.123769253492355,-0.130880102515221,-0.020369416102767,-1.77874302864075,-0.746549129486084,0.68037211894989,-0.339918047189713,0.0984957665205002,-0.379954725503922,-0.261633574962616,-0.183862715959549,-0.632507801055908,-1.7641806602478,0.217126369476318,-1.13834941387177,-0.140860185027123,-0.976305663585663,-0.49007323384285,2.16896939277649,-0.165545418858528,-0.915661454200745,0.558752536773682,-0.182188898324966,0.431765347719193,-0.0965607315301895,0.274078905582428,0.740660071372986,0.406985700130463,-1.64346122741699,-0.672199010848999,0.158701986074448,0.990698158740997,-0.572533667087555
039_ff.jpg,-0.119454234838486,-1.40811824798584,1.43532657623291,0.390882760286331,1.00007057189941,-0.221133470535278,0.813080668449402,1.06339800357819,0.996587574481964,1.18118524551392,-1.38161683082581,-0.429691314697266,1.75994729995728,-1.3694965839386,0.251286447048187,1.81041121482849,1.21505653858185,-0.165575921535492,1.18592965602875,-0.430307298898697,1.1255716085434,0.634168565273285,-1.71894490718842,1.75533258914948,-2.03076195716858,-0.684874951839447,1.32518231868744,-0.527250707149506,-0.777966916561127,-0.921986699104309,-0.691134929656982,1.48172283172607,-0.611583650112152,-0.0191583931446075,0.851196050643921,-0.14793948829174,-1.56440711021423,-1.23435163497925,-1.03477358818054,-0.160833895206451,-0.832058966159821,-0.736559629440308,1.35643970966339,-0.151500672101975,0.396787524223328,-0.714284837245941,0.735298335552216,-0.383304864168167,0.0106533244252205,-0.166561290621758,-0.927094221115112,0.870421409606934,-2.93891143798828,1.30620849132538,0.328508049249649,-0.932251811027527,-1.55639111995697,-1.79557383060455,-1.21642005443573,0.619554281234741,-2.31272912025452,-0.279677212238312,1.86806559562683,-0.557583093643189,-0.0433737561106682,0.129632323980331,1.06620037555695,1.45851254463196,-0.643665134906769,1.19118475914001,0.484036952257156,-1.38850164413452,0.516922056674957,0.551879107952118,1.27272605895996,-0.624997973442078,-2.65132665634155,-1.08968353271484,-1.73998010158539,-0.671333611011505,2.04811692237854,-0.794860482215881,-1.3793877363205,-0.589667737483978,0.375433683395386,-0.465636670589447,-0.579629123210907,-1.56536495685577,-1.18278181552887,-0.0881151705980301,0.272551655769348,0.760330736637116,0.734703123569489,-1.36576068401337,-1.30685293674469,1.22406697273254,-1.52258360385895,1.45179569721222,0.90527218580246,1.86316561698914,-1.22271871566772,0.357668042182922,-0.447641968727112,-1.42452764511108,-0.180151641368866,-0.963643431663513,-2.15648007392883,0.748850584030151,-1.49460363388062,0.0400612652301788,-0.337023884057999,-0.323639690876007,0.750847578048706,-1.01609098911285,-0.937207877635956,-1.01115095615387,0.206961020827293,-0.603662014007568,-1.38282155990601,-0.329997569322586,0.00208365917205811,-1.92290270328522,0.436016619205475,0.780224502086639,0.981073379516602,0.8471639752388,-0.384142905473709,0.507248520851135
040_ff.jpg,0.673800230026245,1.03394019603729,-1.54513585567474,-1.03041732311249,0.968612372875214,0.892152309417725,0.533946335315704,0.726855933666229,0.139258682727814,-0.221747323870659,-0.0411699041724205,0.683325231075287,0.442611813545227,0.305190980434418,1.61715686321259,2.16258025169373,1.66667938232422,-1.12219631671906,1.09647440910339,-1.19933533668518,-2.45208549499512,0.762861251831055,0.869128227233887,-0.722082912921906,0.76956444978714,-0.289596557617188,-0.161753192543983,0.770455718040466,-0.0862670987844467,0.669652879238129,-0.141353279352188,-3.57472062110901,1.22077369689941,-0.528924703598023,1.42148077487946,0.825582146644592,0.595083236694336,2.78874802589417,-0.322414129972458,0.833036541938782,-2.20459246635437,0.310630947351456,0.586133718490601,-0.597748458385468,0.0789409354329109,-1.2172247171402,-2.6104142665863,0.842037200927734,-0.128038093447685,-0.101602420210838,-1.05478811264038,2.15374851226807,-0.278165817260742,1.27935910224915,-0.214561775326729,0.746979057788849,0.656468570232391,0.825754702091217,-0.220659092068672,-0.867859899997711,-0.152328968048096,1.97705912590027,1.49887990951538,1.33766853809357,-0.0172762461006641,0.625854313373566,-0.971470952033997,0.817885637283325,-1.42230904102325,1.04942727088928,2.43611884117126,0.237497717142105,-0.993461191654205,-0.396558940410614,0.524883627891541,1.0045770406723,-0.955842137336731,-0.360188394784927,0.442000091075897,-0.434172689914703,0.700486183166504,2.54286289215088,-1.293133020401,0.139311030507088,0.341949671506882,-1.18017852306366,-0.404920101165772,-0.465434908866882,-1.21639287471771,-1.36473667621613,-0.271617501974106,-1.0927482843399,2.39492607116699,-0.166237205266953,-2.16585564613342,0.759194433689117,-1.74651730060577,1.01201367378235,-1.37476563453674,1.20515167713165,0.454917728900909,-0.639735043048859,-0.233480215072632,0.895507097244263,-0.416316151618958,0.672058343887329,-1.78543615341187,-1.96306920051575,0.374366164207459,0.947228133678436,-0.500384211540222,0.749820351600647,0.911998152732849,0.768357276916504,-0.41666641831398,-1.50041341781616,-1.02638518810272,-0.416155517101288,0.837992191314697,0.541793823242188,1.82328605651855,0.660125136375427,0.907092392444611,-1.31533479690552,0.93322080373764,1.51508295536041,2.19350838661194,-0.977402806282044
041_ff.jpg,-0.732332229614258,-1.76274609565735,0.632411897182465,0.0493558123707771,0.672906756401062,-0.693682968616486,1.00954604148865,0.176906570792198,-2.51994132995605,1.18136489391327,-1.84422647953033,0.426989018917084,1.76407289505005,1.57834553718567,1.18868947029114,0.905949115753174,1.46363520622253,-1.51721143722534,-0.790179908275604,-1.92645752429962,-1.52268469333649,-0.00263697141781449,-0.594613492488861,-0.105791963636875,0.996008694171906,0.0830156579613686,0.945316553115845,0.6000115275383,0.308278918266296,-0.426090896129608,-0.178629979491234,-1.07640624046326,1.22394549846649,-0.571075856685638,1.66443490982056,0.392805367708206,-0.753348588943481,0.983480572700501,-1.94269037246704,-0.458543032407761,-1.12694907188416,1.19591224193573,-0.178108543157578,0.734178125858307,0.0853708311915398,-2.65319967269897,-0.594282805919647,2.56089162826538,0.371118307113647,0.337060898542404,-0.321177899837494,2.16422033309937,-0.661118745803833,-0.90844601392746,1.38226985931396,0.842750012874603,-0.162868067622185,-0.225055009126663,0.786986708641052,0.542293608188629,-0.906393229961395,-0.139682114124298,0.379808604717255,1.51358473300934,-0.88289475440979,0.333657324314117,-2.3256139755249,1.95426714420319,0.261192560195923,1.67111551761627,0.34893411397934,-0.408303380012512,-0.721075713634491,-1.00068020820618,1.37020695209503,-0.657267570495606,-0.85089123249054,-1.09203135967255,-0.639726877212524,-0.481769442558289,-0.432163387537003,1.0248316526413,-2.10591769218445,1.44291579723358,1.89261817932129,-0.056438259780407,0.645517408847809,-1.82288587093353,-0.786309480667114,-0.63763564825058,-1.1259902715683,0.828503251075745,1.990886926651,-0.771407186985016,-0.0216580182313919,1.43946504592896,0.226204544305801,0.609952986240387,0.298947960138321,1.25339031219482,0.406641066074371,1.02274417877197,-0.93057107925415,-0.518115043640137,-0.132481694221497,-0.700551271438599,-1.32622754573822,-1.71381187438965,0.19576296210289,-0.0370715260505676,-1.18139147758484,1.06829357147217,0.600590944290161,0.339599013328552,-0.270067244768143,-0.252404153347015,0.347632318735123,0.307715475559235,-0.995105266571045,0.293353497982025,2.90031456947327,-0.936032652854919,0.0476239062845707,-0.854424774646759,0.161156445741653,1.20833778381348,1.11174714565277,0.678641021251679
042_ff.jpg,0.295421838760376,-0.293222069740295,0.236165732145309,1.44895708560944,1.69474315643311,-0.0858101472258568,1.14742481708527,-0.0577650554478169,0.0742948278784752,3.44587111473084,-0.385323882102966,-1.40592229366303,-1.78273391723633,-0.283723175525665,-0.749901413917542,1.26105642318726,1.76846063137054,0.196730121970177,-0.63955557346344,-0.889076590538025,0.73445200920105,-0.378050833940506,2.11591100692749,1.14769053459167,1.20845937728882,0.451518088579178,-0.426854640245438,0.142932683229446,-0.194467052817345,-0.0768550410866737,1.30405628681183,-1.56623506546021,-2.03159809112549,0.166757762432098,2.26657676696777,0.328898042440414,-1.34290659427643,0.744993805885315,1.02511286735535,0.347382664680481,-2.1823046207428,0.275818437337875,1.60531520843506,0.525932371616364,1.82054305076599,-0.244967952370644,-0.00347802229225636,0.710655927658081,-0.792566061019898,1.56044173240662,-1.57672595977783,0.92992377281189,-0.779307365417481,0.340831935405731,-1.32998836040497,0.890779197216034,2.00003433227539,-0.207046344876289,-0.274534732103348,-0.495136201381683,-1.03098928928375,-0.524127721786499,1.83703672885895,-0.358089834451675,-0.485745698213577,-0.463647782802582,-1.16047322750092,1.27863073348999,-0.212422430515289,0.0858872011303902,-0.570538341999054,-0.0940089523792267,-0.409833699464798,0.0686481297016144,0.350879728794098,-0.849031388759613,-0.838050603866577,-0.924684405326843,-1.16765379905701,-0.351288139820099,0.885720014572144,-0.353529393672943,0.882296800613403,-0.381330251693726,-0.635058343410492,0.633625268936157,0.118834160268307,-0.483520209789276,-0.558410167694092,1.37744653224945,-0.277448236942291,0.640861093997955,0.599812150001526,1.27677536010742,-0.144950062036514,-0.211915850639343,-1.66831576824188,-0.510566115379334,-0.178783133625984,1.10518312454224,-0.814086318016052,1.43128633499146,-0.786088228225708,-2.0266809463501,0.123889587819576,-1.74541985988617,-2.3295214176178,0.909537672996521,-0.437859177589417,-1.39979255199432,0.611971378326416,0.938523054122925,1.69864344596863,1.12318432331085,0.780555248260498,0.0758604407310486,1.22889423370361,0.172298952937126,-0.331132382154465,-0.0319435335695744,1.49527537822723,-1.3795862197876,-0.424004137516022,-0.844302415847778,-1.06948447227478,-1.07435488700867,0.805650472640991,-1.91140115261078
